{"learner":{"attributes":{"best_iteration":"499","best_ntree_limit":"500","scikit_learn":"{\"n_estimators\": 500, \"objective\": \"reg:squarederror\", \"max_depth\": null, \"learning_rate\": null, \"verbosity\": null, \"booster\": null, \"tree_method\": null, \"gamma\": null, \"min_child_weight\": null, \"max_delta_step\": null, \"subsample\": null, \"colsample_bytree\": null, \"colsample_bylevel\": null, \"colsample_bynode\": null, \"reg_alpha\": null, \"reg_lambda\": null, \"scale_pos_weight\": null, \"base_score\": null, \"missing\": NaN, \"num_parallel_tree\": null, \"random_state\": null, \"n_jobs\": null, \"monotone_constraints\": null, \"interaction_constraints\": null, \"importance_type\": null, \"gpu_id\": null, \"validate_parameters\": null, \"predictor\": null, \"enable_categorical\": false, \"_estimator_type\": \"regressor\"}"},"feature_names":[],"feature_types":[],"gradient_booster":{"model":{"gbtree_model_param":{"num_trees":"500","size_leaf_vector":"0"},"tree_info":[0,0,0,0,0,0,0,0,0,0,0,0,0,0,0,0,0,0,0,0,0,0,0,0,0,0,0,0,0,0,0,0,0,0,0,0,0,0,0,0,0,0,0,0,0,0,0,0,0,0,0,0,0,0,0,0,0,0,0,0,0,0,0,0,0,0,0,0,0,0,0,0,0,0,0,0,0,0,0,0,0,0,0,0,0,0,0,0,0,0,0,0,0,0,0,0,0,0,0,0,0,0,0,0,0,0,0,0,0,0,0,0,0,0,0,0,0,0,0,0,0,0,0,0,0,0,0,0,0,0,0,0,0,0,0,0,0,0,0,0,0,0,0,0,0,0,0,0,0,0,0,0,0,0,0,0,0,0,0,0,0,0,0,0,0,0,0,0,0,0,0,0,0,0,0,0,0,0,0,0,0,0,0,0,0,0,0,0,0,0,0,0,0,0,0,0,0,0,0,0,0,0,0,0,0,0,0,0,0,0,0,0,0,0,0,0,0,0,0,0,0,0,0,0,0,0,0,0,0,0,0,0,0,0,0,0,0,0,0,0,0,0,0,0,0,0,0,0,0,0,0,0,0,0,0,0,0,0,0,0,0,0,0,0,0,0,0,0,0,0,0,0,0,0,0,0,0,0,0,0,0,0,0,0,0,0,0,0,0,0,0,0,0,0,0,0,0,0,0,0,0,0,0,0,0,0,0,0,0,0,0,0,0,0,0,0,0,0,0,0,0,0,0,0,0,0,0,0,0,0,0,0,0,0,0,0,0,0,0,0,0,0,0,0,0,0,0,0,0,0,0,0,0,0,0,0,0,0,0,0,0,0,0,0,0,0,0,0,0,0,0,0,0,0,0,0,0,0,0,0,0,0,0,0,0,0,0,0,0,0,0,0,0,0,0,0,0,0,0,0,0,0,0,0,0,0,0,0,0,0,0,0,0,0,0,0,0,0,0,0,0,0,0,0,0,0,0,0,0,0,0,0,0,0,0,0,0,0,0,0,0,0,0,0,0,0,0,0,0,0,0,0,0,0,0,0,0,0,0,0,0,0,0,0,0,0,0,0,0,0,0,0,0,0,0,0,0,0,0,0,0,0,0,0,0,0,0,0,0,0,0,0,0,0,0,0,0,0,0,0],"trees":[{"base_weights":[5.1181605E6,4.619268E6,1.6296998E7,3.2515705E6,5.5515405E6,1.4439647E7,2.4556632E7,3.1659518E6,6.585969E6,5.273832E6,9.110922E6,1.3116055E7,1.6936086E7,2.6751406E7,2.2841728E7,2.3843082E6,3.4209222E6,6.6459965E6,4.9547405E6,4.4524245E6,5.5609385E6,1.0271466E7,8.212356E6,1.4362821E7,1.225828E7,1.8922862E7,1.5463906E7,2.0784134E7,2.7532262E7,2.3605796E7,2.047505E7,2.3011942E6,3.5187612E6,3.192451E6,3.8538345E6,6.996563E6,6.426487E6,3.6908938E6,4.8336455E6,5.487681E6,8.888909E6,1.0945769E7,9.115167E6,4.765175E6,8.745055E6,1.5134779E7,1.2873417E7,1.1777287E7,1.3099296E7,1.7197762E7,1.9966596E7,1.5760673E7,1.2532667E7,1.17428E7,2.409981E7,1.7903824E7,2.3963492E7,1.624775E7,2.2287814E7,2.1795175E6,2.9356715E6,3.8020995E6,3.2512662E6,3.0537142E6,3.7552572E6,3.2473722E6,4.5276125E6,4.3136775E6,3.1577522E6,7.124083E6,4.4619515E6,5.967046E6,5.1491055E6,1.0299455E7,1.1637587E7,8.587961E6,9.785858E6,5.2859085E6,4.357193E6,9.178484E6,7.894881E6,1.5182266E7,8.3278E6,1.2223357E7,1.1086333E7,1.3784919E7,1.8299556E7,1.7447408E7,1.5079714E7,1.003985E7,1.381969E7,1.4449428E7,4.0704998E6,4.916E6,1.8408312E7,1.8599684E7,1.01543E7],"categories":[],"categories_nodes":[],"categories_segments":[],"categories_sizes":[],"default_left":[true,true,true,true,true,true,true,true,true,true,true,true,true,true,true,true,true,true,false,true,true,true,true,true,true,true,true,true,false,true,true,true,true,true,true,false,false,true,true,true,false,true,true,true,true,true,false,true,false,true,false,true,true,true,false,true,false,true,false,false,false,false,false,false,false,false,false,false,false,false,false,false,false,false,false,false,false,false,false,false,false,false,false,false,false,false,false,false,false,false,false,false,false,false,false,false,false],"id":0,"left_children":[1,3,5,7,9,11,13,15,17,19,21,23,25,27,29,31,33,35,-1,37,39,41,43,45,47,49,51,53,-1,55,57,59,61,63,65,-1,-1,67,69,71,-1,73,75,77,79,81,-1,83,-1,85,-1,87,89,91,-1,93,-1,95,-1,-1,-1,-1,-1,-1,-1,-1,-1,-1,-1,-1,-1,-1,-1,-1,-1,-1,-1,-1,-1,-1,-1,-1,-1,-1,-1,-1,-1,-1,-1,-1,-1,-1,-1,-1,-1,-1,-1],"loss_changes":[3.735918E17,8.176477E16,4.355145E16,7.4021184E15,3.7652226E16,7.5065377E15,1.3611954E15,5.0443875E15,3.0717606E13,8.319386E15,2.792794E15,1.4633813E15,2.067769E15,4.715187E14,6.0971356E13,5.801728E14,1.8782407E15,3.0558692E12,0E0,2.6440334E15,6.342258E15,8.3586077E14,2.8229703E15,5.1686495E14,2.1587365E14,2.6700953E14,2.104534E14,6.16345E14,0E0,2.1715355E13,2.5858495E14,4.4260282E14,1.977403E13,9.65878E14,2.6813739E15,0E0,0E0,1.00339026E15,5.1673525E15,4.132652E15,0E0,2.1682713E14,7.436736E13,2.1795348E13,4.249956E14,3.5046933E12,0E0,4.6952582E13,0E0,2.5537446E14,0E0,2.2161172E14,1.5251429E13,1.4884437E14,0E0,2.0892332E13,0E0,2.1241244E14,0E0,0E0,0E0,0E0,0E0,0E0,0E0,0E0,0E0,0E0,0E0,0E0,0E0,0E0,0E0,0E0,0E0,0E0,0E0,0E0,0E0,0E0,0E0,0E0,0E0,0E0,0E0,0E0,0E0,0E0,0E0,0E0,0E0,0E0,0E0,0E0,0E0,0E0,0E0],"parents":[2147483647,0,0,1,1,2,2,3,3,4,4,5,5,6,6,7,7,8,8,9,9,10,10,11,11,12,12,13,13,14,14,15,15,16,16,17,17,19,19,20,20,21,21,22,22,23,23,24,24,25,25,26,26,27,27,29,29,30,30,31,31,32,32,33,33,34,34,37,37,38,38,39,39,41,41,42,42,43,43,44,44,45,45,47,47,49,49,51,51,52,52,53,53,55,55,57,57],"right_children":[2,4,6,8,10,12,14,16,18,20,22,24,26,28,30,32,34,36,-1,38,40,42,44,46,48,50,52,54,-1,56,58,60,62,64,66,-1,-1,68,70,72,-1,74,76,78,80,82,-1,84,-1,86,-1,88,90,92,-1,94,-1,96,-1,-1,-1,-1,-1,-1,-1,-1,-1,-1,-1,-1,-1,-1,-1,-1,-1,-1,-1,-1,-1,-1,-1,-1,-1,-1,-1,-1,-1,-1,-1,-1,-1,-1,-1,-1,-1,-1,-1],"split_conditions":[8.15E1,4.85E1,1.34E2,1.5E0,6.35E1,9.55E1,2.1077215E1,3.35E1,2.45E1,2.6491854E-1,2.5E0,2.1077215E1,2.1077215E1,1.445E2,9.5E0,5E-1,5.5E0,2.1077215E1,1.4864222E6,5.65E1,1.5E0,2.75E1,6.7E1,1.5E0,8.95E1,5.5E0,1.5E0,5E-1,8.259679E6,1.44E2,1.69E2,5.5E0,2.3577215E1,7.6491857E-1,3.75E1,2.098969E6,1.9279461E6,2.5E0,2.5E0,2.1077215E1,2.6666728E6,6.75E1,6.95E1,2.3577215E1,2.75E1,2.2E1,3.8620252E6,1.15E1,3.929789E6,7.6491857E-1,5.989979E6,2.75E1,2.75E1,1.15E1,7.2299435E6,2.3577215E1,7.189048E6,1.5E0,6.6863445E6,6.5385525E5,8.807015E5,1.1406299E6,9.7537994E5,9.161143E5,1.1265772E6,9.742117E5,1.3582838E6,1.2941032E6,9.473257E5,2.137225E6,1.3385855E6,1.7901139E6,1.5447318E6,3.0898365E6,3.4912762E6,2.5763885E6,2.9357575E6,1.5857726E6,1.307158E6,2.7535452E6,2.3684645E6,4.55468E6,2.49834E6,3.6670072E6,3.3259E6,4.1354758E6,5.489867E6,5.2342225E6,4.5239145E6,3.011955E6,4.1459072E6,4.3348285E6,1.22115E6,1.4748E6,5.522494E6,5.5799055E6,3.04629E6],"split_indices":[2,2,2,4,2,2,5,2,1,0,3,5,5,2,1,4,1,5,0,2,4,5,2,4,2,1,4,4,0,2,2,1,5,0,2,0,0,3,3,5,0,2,2,5,5,1,0,1,0,0,0,5,5,1,0,5,0,4,0,0,0,0,0,0,0,0,0,0,0,0,0,0,0,0,0,0,0,0,0,0,0,0,0,0,0,0,0,0,0,0,0,0,0,0,0,0,0],"split_type":[0,0,0,0,0,0,0,0,0,0,0,0,0,0,0,0,0,0,0,0,0,0,0,0,0,0,0,0,0,0,0,0,0,0,0,0,0,0,0,0,0,0,0,0,0,0,0,0,0,0,0,0,0,0,0,0,0,0,0,0,0,0,0,0,0,0,0,0,0,0,0,0,0,0,0,0,0,0,0,0,0,0,0,0,0,0,0,0,0,0,0,0,0,0,0,0,0],"sum_hessian":[6.7E4,6.4139E4,2.861E3,2.6E4,3.8139E4,2.338E3,5.23E2,2.5351E4,6.49E2,3.5381E4,2.758E3,1.532E3,8.06E2,2.23E2,3E2,6.238E3,1.9113E4,6.23E2,2.6E1,9.168E3,2.6213E4,1.199E3,1.559E3,6.18E2,9.14E2,3.38E2,4.68E2,2.9E1,1.94E2,2.2E2,8E1,5.815E3,4.23E2,1.2516E4,6.597E3,2.28E2,3.95E2,3.062E3,6.106E3,2.5651E4,5.62E2,7.52E2,4.47E2,2.1E2,1.349E3,4.01E2,2.17E2,5.91E2,3.23E2,1.34E2,2.04E2,4.21E2,4.7E1,9E0,2E1,1.6E1,2.04E2,2.7E1,5.3E1,4.883E3,9.32E2,1.99E2,2.24E2,1.0046E4,2.47E3,3.475E3,3.122E3,1.409E3,1.653E3,8.5E2,5.256E3,1.0611E4,1.504E4,3.97E2,3.55E2,2.58E2,1.89E2,8.7E1,1.23E2,8.87E2,4.62E2,3.97E2,4E0,3.49E2,2.42E2,3.6E1,9.8E1,1.14E2,3.07E2,1.9E1,2.8E1,6E0,3E0,1E0,1.5E1,1.8E1,9E0],"tree_param":{"num_deleted":"0","num_feature":"6","num_nodes":"97","size_leaf_vector":"0"}},{"base_weights":[3.584955E6,3.2341948E6,1.1444555E7,2.695551E6,4.462967E6,9.738054E6,1.6019328E7,2.0714764E6,3.2013858E6,6.7150105E6,4.1356132E6,8.975817E6,1.1027454E7,1.3654656E7,1.7579938E7,1.669601E6,2.2539535E6,5.295887E6,3.082451E6,4.866344E6,6.9500845E6,3.9644665E6,6.125332E6,9.746673E6,8.452527E6,1.2257967E7,9.936752E6,1.5152705E7,1.228855E7,2.0210992E7,1.6550167E7,1.6093916E6,2.5444825E6,2.4448562E6,1.5983419E6,5.821453E6,4.5987305E6,2.7896045E6,3.6175228E6,1.851183E6,4.8812165E6,7.5628735E6,6.501854E6,4.3376805E6,3.6558118E6,6.428039E6,5.5315315E6,9.368962E6,1.0702113E7,8.542967E6,6.6785185E6,8.3122215E6,1.2554712E7,8.697654E6,1.0460901E7,1.2817527E7,1.5752512E7,2.0491988E7,1.5999374E7,1.5243918E6,2.0536696E6,2.4874555E6,3.6165335E6,2.2512008E6,3.790499E6,1.72395E6,1.37579E6,6.0993155E6,5.3519425E6,4.718352E6,3.9471782E6,3.0678005E6,2.1536745E6,4.1305105E6,3.4293238E6,3.3453872E6,-5.6861275E5,7.769206E6,5.935804E6,6.287162E6,7.216537E6,3.9969118E6,4.6996625E6,3.3556075E6,3.985987E6,5.4841855E6,6.58413E6,5.617106E6,3.3552082E6,8.663449E6,9.801799E6,1.0939691E7,7.9612985E6,7.9001E6,8.759249E6,8.986728E6,-3.04245E5,5.5710525E5,8.7569E6,9.596163E6,1.1370185E7,1.5062374E7,5.6991725E6,1.1365194E7,1.6479464E7,2.1800866E7,1.1581113E7,1.4097752E7,1.664408E7],"categories":[],"categories_nodes":[],"categories_segments":[],"categories_sizes":[],"default_left":[true,true,true,true,true,true,true,true,true,true,true,true,true,true,true,true,true,true,true,true,true,true,true,true,true,true,true,true,false,false,true,true,true,true,true,true,true,true,true,true,false,true,true,true,true,true,true,true,true,true,false,true,false,true,true,true,true,true,true,false,false,false,false,false,false,false,false,false,false,false,false,false,false,false,false,false,false,false,false,false,false,false,false,false,false,false,false,false,false,false,false,false,false,false,false,false,false,false,false,false,false,false,false,false,false,false,false,false,false],"id":1,"left_children":[1,3,5,7,9,11,13,15,17,19,21,23,25,27,29,31,33,35,37,39,41,43,45,47,49,51,53,55,-1,-1,57,59,61,63,65,67,69,71,73,75,-1,77,79,81,83,85,87,89,91,93,-1,95,-1,97,99,101,103,105,107,-1,-1,-1,-1,-1,-1,-1,-1,-1,-1,-1,-1,-1,-1,-1,-1,-1,-1,-1,-1,-1,-1,-1,-1,-1,-1,-1,-1,-1,-1,-1,-1,-1,-1,-1,-1,-1,-1,-1,-1,-1,-1,-1,-1,-1,-1,-1,-1,-1,-1],"loss_changes":[1.8467377E17,4.2440393E16,2.2187251E16,1.4071034E16,1.4381818E16,1.9521829E15,2.623641E15,1.4604779E15,6.1189884E15,1.0434881E15,5.7879323E15,4.4887562E14,9.129726E14,4.543517E14,9.2266205E14,3.2455135E14,1.7143877E15,4.576116E14,3.6421323E15,3.6539434E12,5.5427412E14,1.7948668E15,2.0710332E14,8.955436E13,7.0016557E13,3.148211E14,1.7789755E14,1.1875585E12,0E0,0E0,4.0815933E14,2.1740802E14,1.5458124E13,2.76181E15,8.425867E13,6.52019E13,2.6036092E13,2.659126E15,7.814521E14,1.2749237E13,0E0,2.6341464E14,1.5041405E14,8.5824613E14,8.4004406E14,9.471691E13,6.7381594E13,3.2652489E13,5.369783E12,3.5081293E13,0E0,1.6546643E14,0E0,5.7337813E13,1.157687E14,4.734439E14,1.6672848E14,1.9072554E14,1.3560071E14,0E0,0E0,0E0,0E0,0E0,0E0,0E0,0E0,0E0,0E0,0E0,0E0,0E0,0E0,0E0,0E0,0E0,0E0,0E0,0E0,0E0,0E0,0E0,0E0,0E0,0E0,0E0,0E0,0E0,0E0,0E0,0E0,0E0,0E0,0E0,0E0,0E0,0E0,0E0,0E0,0E0,0E0,0E0,0E0,0E0,0E0,0E0,0E0,0E0,0E0],"parents":[2147483647,0,0,1,1,2,2,3,3,4,4,5,5,6,6,7,7,8,8,9,9,10,10,11,11,12,12,13,13,14,14,15,15,16,16,17,17,18,18,19,19,20,20,21,21,22,22,23,23,24,24,25,25,26,26,27,27,30,30,31,31,32,32,33,33,34,34,35,35,36,36,37,37,38,38,39,39,41,41,42,42,43,43,44,44,45,45,46,46,47,47,48,48,49,49,51,51,53,53,54,54,55,55,56,56,57,57,58,58],"right_children":[2,4,6,8,10,12,14,16,18,20,22,24,26,28,30,32,34,36,38,40,42,44,46,48,50,52,54,56,-1,-1,58,60,62,64,66,68,70,72,74,76,-1,78,80,82,84,86,88,90,92,94,-1,96,-1,98,100,102,104,106,108,-1,-1,-1,-1,-1,-1,-1,-1,-1,-1,-1,-1,-1,-1,-1,-1,-1,-1,-1,-1,-1,-1,-1,-1,-1,-1,-1,-1,-1,-1,-1,-1,-1,-1,-1,-1,-1,-1,-1,-1,-1,-1,-1,-1,-1,-1,-1,-1,-1,-1],"split_conditions":[8.15E1,5.85E1,1.235E2,4.35E1,2.5E0,9.35E1,1.525E2,3.35E1,1.5E0,2.6491854E-1,6.7E1,2.1077215E1,2.3577215E1,2.1077215E1,1.75E1,7.6491857E-1,1.5E0,1.5E0,5E-1,2.5E0,2.1077215E1,2.3577215E1,2.75E1,8.95E1,2.35E1,1.5E0,7.6491857E-1,5E-1,3.6865652E6,6.063298E6,1.59E2,5.5E0,1.15E1,3.75E1,2.75E1,2.75E1,2.05E1,2.5E0,1.75E1,1.3E1,1.464365E6,1.65E1,6.95E1,5E-1,5E-1,2.5E0,2.25E1,8.5E0,9.25E1,7.6491857E-1,2.0035556E6,1.175E2,3.7664138E6,9.45E1,1.015E2,1.415E2,2.5E0,1.15E1,1.78E2,4.5731753E5,6.1610094E5,7.462367E5,1.0849601E6,6.7536025E5,1.1371498E6,5.1718503E5,4.1273703E5,1.8297948E6,1.6055829E6,1.4155056E6,1.1841535E6,9.203402E5,6.461024E5,1.2391532E6,1.0287972E6,1.0036162E6,-1.7058383E5,2.330762E6,1.7807412E6,1.8861486E6,2.1649612E6,1.1990736E6,1.4098988E6,1.0066823E6,1.1957961E6,1.6452558E6,1.9752391E6,1.6851319E6,1.0065625E6,2.5990348E6,2.9405398E6,3.2819075E6,2.3883898E6,2.37003E6,2.6277748E6,2.6960185E6,-9.12735E4,1.6713158E5,2.62707E6,2.878849E6,3.4110558E6,4.5187125E6,1.7097519E6,3.4095582E6,4.9438395E6,6.54026E6,3.474334E6,4.229326E6,4.993224E6],"split_indices":[2,2,2,2,3,2,2,2,3,0,2,5,5,5,5,0,3,4,4,5,5,5,5,2,1,1,0,4,0,0,2,1,1,2,5,5,1,3,5,1,0,1,2,4,4,1,1,1,2,0,0,2,0,2,2,2,1,1,2,0,0,0,0,0,0,0,0,0,0,0,0,0,0,0,0,0,0,0,0,0,0,0,0,0,0,0,0,0,0,0,0,0,0,0,0,0,0,0,0,0,0,0,0,0,0,0,0,0,0],"split_type":[0,0,0,0,0,0,0,0,0,0,0,0,0,0,0,0,0,0,0,0,0,0,0,0,0,0,0,0,0,0,0,0,0,0,0,0,0,0,0,0,0,0,0,0,0,0,0,0,0,0,0,0,0,0,0,0,0,0,0,0,0,0,0,0,0,0,0,0,0,0,0,0,0,0,0,0,0,0,0,0,0,0,0,0,0,0,0,0,0,0,0,0,0,0,0,0,0,0,0,0,0,0,0,0,0,0,0,0,0],"sum_hessian":[6.7E4,6.4139E4,2.861E3,4.4594E4,1.9545E4,2.086E3,7.75E2,1.9966E4,2.4628E4,2.478E3,1.7067E4,1.316E3,7.7E2,3.12E2,4.63E2,6.238E3,1.3728E4,1.321E3,2.3307E4,2.82E2,2.196E3,1.5718E4,1.349E3,5.25E2,7.91E2,3.57E2,4.13E2,1.44E2,1.68E2,1.25E2,3.38E2,5.839E3,3.99E2,1.063E4,3.098E3,7.49E2,5.72E2,1.5067E4,8.24E3,2E0,2.8E2,9.21E2,1.275E3,7.109E3,8.609E3,8.87E2,4.62E2,3.84E2,1.41E2,7.49E2,4.2E1,2.7E1,3.3E2,1.28E2,2.85E2,3.4E1,1.1E2,3.7E1,3.01E2,4.905E3,9.34E2,3.82E2,1.7E1,9.295E3,1.335E3,1.976E3,1.122E3,4.63E2,2.86E2,4.78E2,9.4E1,1.0479E4,4.588E3,2.206E3,6.034E3,1E0,1E0,8.14E2,1.07E2,9.88E2,2.87E2,3.668E3,3.441E3,4.515E3,4.094E3,1.31E2,7.56E2,4.43E2,1.9E1,1.54E2,2.3E2,1.27E2,1.4E1,1.98E2,5.51E2,2.5E1,2E0,1E0,1.27E2,1.52E2,1.33E2,2.5E1,9E0,1.8E1,9.2E1,3.1E1,6E0,8.2E1,2.19E2],"tree_param":{"num_deleted":"0","num_feature":"6","num_nodes":"109","size_leaf_vector":"0"}},{"base_weights":[2.511175E6,2.2645148E6,8.0381755E6,1.5730148E6,2.754454E6,7.0945255E6,1.2235044E7,1.4373819E6,2.1670062E6,2.6180632E6,4.4729005E6,6.451762E6,8.3660485E6,1.3939717E7,1.1526981E7,1.6063075E6,1.1443152E6,1.871228E6,3.2725338E6,2.3776185E6,3.0009052E6,5.056178E6,4.021358E6,7.04392E6,6.043246E6,9.169796E6,7.219642E6,1.1912616E7,1.4624069E7,9.168195E6,1.1919717E7,1.4846485E6,2.0885342E6,1.1276562E6,3.4644615E6,2.2184522E6,1.6232385E6,3.4862805E6,1.9680896E6,2.6488145E6,1.9274216E6,4.645873E6,2.8798298E6,5.44381E6,4.393358E6,2.2680942E6,4.292408E6,7.491771E6,6.163157E6,5.7332785E6,6.568268E6,9.468074E6,6.305404E6,7.3883725E6,3.2174852E6,1.2010118E7,1.5486515E7,8.0959675E6,1.3505292E7,1.2395877E7,9.513578E6,1.3437532E6,1.9020112E6,2.2311522E6,1.7982156E6,9.495004E5,1.308307E6,3.8072412E6,1.7160675E6,2.3389458E6,1.9994944E6,1.838972E6,1.49564E6,3.4326978E6,5.9032695E6,2.499051E6,1.138846E6,2.4987415E6,4.0539348E6,1.7638514E6,3.0966942E6,5.1395925E6,4.2614815E6,3.3294492E6,2.7228218E6,3.8961075E6,5.589291E6,3.8833112E6,4.796391E6,2.3291762E6,1.3780845E6,3.5277625E6,4.4278005E6,7.1438805E6,8.0920395E6,5.70985E6,7.3152135E6,6.002527E6,5.321878E6,6.368778E6,8.717195E6,9.558869E6,2.862339E6,9.998994E6,4.5473535E6,5.2499135E6,7.5965135E6,4.1543932E6,-3.9761E5,1.2857714E7,6.3355185E6,1.3417373E7,1.697607E7,1.0073634E7,6.111438E6,7.381713E6,1.0642701E7],"categories":[],"categories_nodes":[],"categories_segments":[],"categories_sizes":[],"default_left":[true,true,true,true,true,true,true,true,true,true,true,true,true,true,true,true,true,true,true,true,true,true,true,true,true,true,true,false,true,true,true,true,true,true,true,true,true,true,true,true,true,true,true,true,true,true,true,true,true,true,true,true,true,true,true,true,true,true,false,false,true,false,false,false,false,false,false,false,false,false,false,false,false,false,false,false,false,false,false,false,false,false,false,false,false,false,false,false,false,false,false,false,false,false,false,false,false,false,false,false,false,false,false,false,false,false,false,false,false,false,false,false,false,false,false,false,false],"id":2,"left_children":[1,3,5,7,9,11,13,15,17,19,21,23,25,27,29,31,33,35,37,39,41,43,45,47,49,51,53,-1,55,57,59,61,63,65,67,69,71,73,75,77,79,81,83,85,87,89,91,93,95,97,99,101,103,105,107,109,111,113,-1,-1,115,-1,-1,-1,-1,-1,-1,-1,-1,-1,-1,-1,-1,-1,-1,-1,-1,-1,-1,-1,-1,-1,-1,-1,-1,-1,-1,-1,-1,-1,-1,-1,-1,-1,-1,-1,-1,-1,-1,-1,-1,-1,-1,-1,-1,-1,-1,-1,-1,-1,-1,-1,-1,-1,-1,-1,-1],"loss_changes":[9.132368E16,2.1725834E16,1.1247798E16,2.1399932E15,8.786919E15,1.8576678E15,4.7179357E14,1.0704218E15,1.610194E15,3.194631E15,7.0631596E14,3.3432455E14,6.5435115E14,3.248928E13,2.3903211E14,8.0280884E14,3.0232704E14,3.323918E14,2.836697E14,2.6038755E15,2.658224E15,2.8439985E14,7.316112E14,2.0232947E14,1.1352672E14,3.2989644E14,1.9704666E14,0E0,5.522469E13,1.6038213E14,2.4755333E14,6.4270535E14,1.1047193E14,2.5198144E14,2.7028162E13,3.8143068E13,6.0011967E13,9.551685E13,6.275813E13,2.8014096E15,1.5316798E15,1.5231672E14,8.731411E14,1.4776835E14,7.346756E13,8.2609E12,1.24141735E14,2.8436978E13,7.207814E13,3.3631741E13,8.937934E13,2.1914641E14,2.5323288E14,9.943601E13,5.2456986E13,6.7642245E13,9.547712E12,1.3074766E14,0E0,0E0,5.864563E13,0E0,0E0,0E0,0E0,0E0,0E0,0E0,0E0,0E0,0E0,0E0,0E0,0E0,0E0,0E0,0E0,0E0,0E0,0E0,0E0,0E0,0E0,0E0,0E0,0E0,0E0,0E0,0E0,0E0,0E0,0E0,0E0,0E0,0E0,0E0,0E0,0E0,0E0,0E0,0E0,0E0,0E0,0E0,0E0,0E0,0E0,0E0,0E0,0E0,0E0,0E0,0E0,0E0,0E0,0E0,0E0],"parents":[2147483647,0,0,1,1,2,2,3,3,4,4,5,5,6,6,7,7,8,8,9,9,10,10,11,11,12,12,13,13,14,14,15,15,16,16,17,17,18,18,19,19,20,20,21,21,22,22,23,23,24,24,25,25,26,26,28,28,29,29,30,30,31,31,32,32,33,33,34,34,35,35,36,36,37,37,38,38,39,39,40,40,41,41,42,42,43,43,44,44,45,45,46,46,47,47,48,48,49,49,50,50,51,51,52,52,53,53,54,54,55,55,56,56,57,57,60,60],"right_children":[2,4,6,8,10,12,14,16,18,20,22,24,26,28,30,32,34,36,38,40,42,44,46,48,50,52,54,-1,56,58,60,62,64,66,68,70,72,74,76,78,80,82,84,86,88,90,92,94,96,98,100,102,104,106,108,110,112,114,-1,-1,116,-1,-1,-1,-1,-1,-1,-1,-1,-1,-1,-1,-1,-1,-1,-1,-1,-1,-1,-1,-1,-1,-1,-1,-1,-1,-1,-1,-1,-1,-1,-1,-1,-1,-1,-1,-1,-1,-1,-1,-1,-1,-1,-1,-1,-1,-1,-1,-1,-1,-1,-1,-1,-1,-1,-1,-1],"split_conditions":[8.15E1,4.95E1,1.34E2,5E-1,6.35E1,9.65E1,1.75E1,2.75E1,3.95E1,5.95E1,2.5E0,2.1077215E1,2.75E1,1.64E2,2.5E0,4.55E1,1.5E0,2.1077215E1,1.5E0,2.5E0,2.5E0,2.75E1,6.7E1,1.5E0,8.95E1,1.5E0,1.255E2,3.573785E6,7.6491857E-1,1.845E2,1.5E0,5.5E0,2.1077215E1,3.55E1,4.45E1,1.75E1,2.75E1,4.85E1,2.75E1,5.45E1,5E-1,1.5E0,1.75E1,1.5E0,6.5E0,1.05E1,2.5E0,8.5E0,2.05E1,1.15E1,1.5E0,1.5E0,1.25E1,9.85E1,1.05E1,1.835E2,5.5E0,1.725E2,4.0515878E6,3.7187632E6,1.665E2,4.03126E5,5.706034E5,6.693457E5,5.394647E5,2.8485012E5,3.9249212E5,1.1421724E6,5.1482028E5,7.0168375E5,5.998483E5,5.516916E5,4.4869203E5,1.0298094E6,1.7709809E6,7.497153E5,3.416538E5,7.496225E5,1.2161805E6,5.2915544E5,9.290083E5,1.5418778E6,1.2784445E6,9.988348E5,8.1684656E5,1.1688322E6,1.6767874E6,1.1649934E6,1.4389174E6,6.987529E5,4.1342538E5,1.0583288E6,1.3283402E6,2.1431642E6,2.427612E6,1.7129551E6,2.1945642E6,1.8007581E6,1.5965635E6,1.9106335E6,2.6151585E6,2.8676608E6,8.5870175E5,2.9996982E6,1.3642061E6,1.5749741E6,2.2789542E6,1.246318E6,-1.1928301E5,3.8573142E6,1.9006556E6,4.025212E6,5.092821E6,3.0220902E6,1.8334315E6,2.214514E6,3.1928105E6],"split_indices":[2,2,2,4,2,2,5,5,2,2,3,5,5,2,1,2,0,5,3,3,3,5,2,4,2,4,2,0,0,2,4,1,5,2,2,5,5,2,5,2,4,4,5,1,1,1,1,1,1,1,4,0,5,2,1,2,1,2,0,0,2,0,0,0,0,0,0,0,0,0,0,0,0,0,0,0,0,0,0,0,0,0,0,0,0,0,0,0,0,0,0,0,0,0,0,0,0,0,0,0,0,0,0,0,0,0,0,0,0,0,0,0,0,0,0,0,0],"split_type":[0,0,0,0,0,0,0,0,0,0,0,0,0,0,0,0,0,0,0,0,0,0,0,0,0,0,0,0,0,0,0,0,0,0,0,0,0,0,0,0,0,0,0,0,0,0,0,0,0,0,0,0,0,0,0,0,0,0,0,0,0,0,0,0,0,0,0,0,0,0,0,0,0,0,0,0,0,0,0,0,0,0,0,0,0,0,0,0,0,0,0,0,0,0,0,0,0,0,0,0,0,0,0,0,0,0,0,0,0,0,0,0,0,0,0,0,0],"sum_hessian":[6.7E4,6.4139E4,2.861E3,2.66E4,3.7539E4,2.338E3,5.23E2,2.1658E4,4.942E3,3.4781E4,2.758E3,1.557E3,7.81E2,1.48E2,3.75E2,1.3736E4,7.922E3,3.901E3,1.041E3,2.1368E4,1.3413E4,1.199E3,1.559E3,6.29E2,9.28E2,4.55E2,3.26E2,4.2E1,1.06E2,5.7E1,3.18E2,1.0972E4,2.764E3,7.867E3,5.5E1,1.622E3,2.279E3,8.93E2,1.48E2,1.3332E4,8.036E3,9.17E2,1.2496E4,7.52E2,4.47E2,2.1E2,1.349E3,4.12E2,2.17E2,5.91E2,3.37E2,4.1E2,4.5E1,3.12E2,1.4E1,3E1,7.6E1,4.8E1,9E0,2.62E2,5.6E1,8.206E3,2.766E3,1.849E3,9.15E2,3.964E3,3.903E3,4.5E1,1E1,1.04E3,5.82E2,8.42E2,1.437E3,8.76E2,1.7E1,8.9E1,5.9E1,1.2048E4,1.284E3,7.052E3,9.84E2,3.96E2,5.21E2,3.229E3,9.267E3,6.7E1,6.85E2,2.02E2,2.45E2,1.95E2,1.5E1,2.07E2,1.142E3,2.69E2,1.43E2,1.6E2,5.7E1,3.49E2,2.42E2,3.12E2,2.5E1,4.04E2,6E0,1.3E1,3.2E1,3E1,2.82E2,1.1E1,3E0,2.5E1,5E0,3.6E1,4E1,2.2E1,2.6E1,2.2E1,3.4E1],"tree_param":{"num_deleted":"0","num_feature":"6","num_nodes":"117","size_leaf_vector":"0"}},{"base_weights":[1.7592205E6,1.5849478E6,5.635906E6,1.3147926E6,2.201868E6,4.7612055E6,8.0036355E6,1.140528E6,1.7675105E6,3.2800855E6,2.044952E6,4.219292E6,5.242307E6,6.8543705E6,8.761645E6,9.298903E5,1.3908905E6,1.3267375E6,1.9548195E6,2.1313218E6,3.426567E6,1.9642901E6,2.9967422E6,4.7757205E6,4.0068365E6,5.82638E6,4.7323635E6,7.681937E6,6.10377E6,9.880039E6,7.9640425E6,8.6909206E5,1.5880456E6,1.5857241E6,9.646808E5,1.5801942E6,1.1507855E6,2.7637978E6,1.844071E6,2.0745718E6,4.0725252E6,3.6241915E6,2.9496072E6,2.1496332E6,1.6704946E6,4.1781678E6,2.9096702E6,4.062927E6,5.225836E6,4.1188052E6,2.9142985E6,3.812735E6,5.9928635E6,4.0457772E6,5.0487805E6,1.1190057E7,7.367502E6,7.587189E6,5.6155475E6,7.7055235E6,1.0760659E7,8.511407E6,6.354868E6,8.205089E5,1.4981371E6,1.1082868E6,2.1358272E6,1.4445208E6,2.9873192E6,8.9046156E5,2.2857838E6,2.5830215E6,1.5505075E6,1.2996798E6,1.056969E6,3.3478385E6,2.345109E6,2.2641265E6,1.6900262E6,2.1910738E6,1.6352331E6,5.114044E6,9.791527E5,4.0232852E6,3.323376E6,3.4073288E6,2.7747632E6,1.954468E6,2.3892972E6,1.480406E6,1.9030949E6,4.9669365E6,1.8349635E6,3.1002842E6,2.5731565E6,1.4798921E6,4.199027E6,6.3732265E6,4.3280085E6,4.4631535E6,3.8240952E6,1.7461128E6,4.1342032E6,4.1650095E6,-2.15517E6,2.9399868E6,6.0390635E6,2.8473715E6,4.487681E6,5.0814265E6,-4.086361E6,-5.3835435E6,1.362974E7,5.7585105E6,7.787695E6,8.629503E6,4.8387535E6,5.355941E6,7.960712E6,1.0293723E7,6.3813015E6,8.993053E6,1.1984132E7,1.1752494E7,8.0728605E6,3.5507042E6,7.3276935E6],"categories":[],"categories_nodes":[],"categories_segments":[],"categories_sizes":[],"default_left":[true,true,true,true,true,true,true,true,true,true,true,true,true,true,true,true,true,true,true,true,true,true,true,true,true,true,true,true,true,true,true,true,true,true,true,true,true,true,true,true,true,true,true,true,true,true,true,true,true,true,true,true,true,true,true,true,true,true,true,true,true,true,true,false,false,false,false,false,false,false,false,false,false,false,false,false,false,false,false,false,false,false,false,false,false,false,false,false,false,false,false,false,false,false,false,false,false,false,false,false,false,false,false,false,false,false,false,false,false,false,false,false,false,false,false,false,false,false,false,false,false,false,false,false,false,false,false],"id":3,"left_children":[1,3,5,7,9,11,13,15,17,19,21,23,25,27,29,31,33,35,37,39,41,43,45,47,49,51,53,55,57,59,61,63,65,67,69,71,73,75,77,79,81,83,85,87,89,91,93,95,97,99,101,103,105,107,109,111,113,115,117,119,121,123,125,-1,-1,-1,-1,-1,-1,-1,-1,-1,-1,-1,-1,-1,-1,-1,-1,-1,-1,-1,-1,-1,-1,-1,-1,-1,-1,-1,-1,-1,-1,-1,-1,-1,-1,-1,-1,-1,-1,-1,-1,-1,-1,-1,-1,-1,-1,-1,-1,-1,-1,-1,-1,-1,-1,-1,-1,-1,-1,-1,-1,-1,-1,-1,-1],"loss_changes":[4.5256964E16,1.0683611E16,5.930671E15,3.5162038E15,3.2968856E15,5.2720724E14,6.1595844E14,1.6969588E15,1.0205787E15,4.098451E14,1.302947E15,9.860815E13,3.0362842E14,1.4753857E14,3.352179E14,6.98556E14,1.2201551E15,1.6314326E14,7.739166E14,2.2727356E13,1.9639597E14,8.5235773E14,1.2465928E14,6.53941E13,7.692931E13,1.4946379E14,1.0970528E14,7.750376E13,7.979029E13,2.7900537E14,1.8901292E14,4.882068E14,3.860561E14,1.9935842E15,4.5076514E14,4.1038144E13,2.9175981E13,2.4768486E14,4.9124762E14,1.0595013E13,1.7545201E13,1.7259326E14,4.2484743E13,4.45998E14,2.6622892E14,1.553797E14,7.168945E13,3.2105015E13,1.393027E14,4.9606872E13,9.396154E13,9.727457E13,4.8958332E13,8.996024E13,1.4184344E14,4.7771955E14,4.7101833E13,6.9968507E13,3.711818E13,1.3309889E14,1.7769139E14,1.9366008E14,1.75851E14,0E0,0E0,0E0,0E0,0E0,0E0,0E0,0E0,0E0,0E0,0E0,0E0,0E0,0E0,0E0,0E0,0E0,0E0,0E0,0E0,0E0,0E0,0E0,0E0,0E0,0E0,0E0,0E0,0E0,0E0,0E0,0E0,0E0,0E0,0E0,0E0,0E0,0E0,0E0,0E0,0E0,0E0,0E0,0E0,0E0,0E0,0E0,0E0,0E0,0E0,0E0,0E0,0E0,0E0,0E0,0E0,0E0,0E0,0E0,0E0,0E0,0E0,0E0,0E0],"parents":[2147483647,0,0,1,1,2,2,3,3,4,4,5,5,6,6,7,7,8,8,9,9,10,10,11,11,12,12,13,13,14,14,15,15,16,16,17,17,18,18,19,19,20,20,21,21,22,22,23,23,24,24,25,25,26,26,27,27,28,28,29,29,30,30,31,31,32,32,33,33,34,34,35,35,36,36,37,37,38,38,39,39,40,40,41,41,42,42,43,43,44,44,45,45,46,46,47,47,48,48,49,49,50,50,51,51,52,52,53,53,54,54,55,55,56,56,57,57,58,58,59,59,60,60,61,61,62,62],"right_children":[2,4,6,8,10,12,14,16,18,20,22,24,26,28,30,32,34,36,38,40,42,44,46,48,50,52,54,56,58,60,62,64,66,68,70,72,74,76,78,80,82,84,86,88,90,92,94,96,98,100,102,104,106,108,110,112,114,116,118,120,122,124,126,-1,-1,-1,-1,-1,-1,-1,-1,-1,-1,-1,-1,-1,-1,-1,-1,-1,-1,-1,-1,-1,-1,-1,-1,-1,-1,-1,-1,-1,-1,-1,-1,-1,-1,-1,-1,-1,-1,-1,-1,-1,-1,-1,-1,-1,-1,-1,-1,-1,-1,-1,-1,-1,-1,-1,-1,-1,-1,-1,-1,-1,-1,-1,-1],"split_conditions":[7.65E1,5.85E1,1.235E2,7.6491857E-1,2.5E0,8.95E1,1.525E2,4.55E1,3.95E1,2.6491854E-1,6.7E1,1.75E1,2.3577215E1,2.1077215E1,2.1077215E1,9.5E0,2.5E0,2.1077215E1,1.5E0,2.35E1,1.5E0,2.75E1,7.5E0,8.5E0,8.85E1,1.5E0,7.6491857E-1,1.245E2,5E-1,7.6491857E-1,9.5E0,5E-1,3.65E1,5.45E1,5.5E0,2.5E0,2.75E1,1.5E0,1.75E1,5.95E1,2.45E1,2.1077215E1,1.75E1,7.6491857E-1,7.6491857E-1,1.25E1,2.75E1,8.15E1,1.45E1,1.5E0,1.5E0,1.175E2,2.5E0,5E-1,2.15E1,2.5E0,5E-1,1.255E2,1.15E1,1.25E1,5.5E0,1.585E2,1.69E2,2.4615267E5,4.4944116E5,3.3248603E5,6.407482E5,4.3335625E5,8.961958E5,2.6713847E5,6.857351E5,7.749065E5,4.6515228E5,3.8990394E5,3.1709072E5,1.00435156E6,7.0353275E5,6.79238E5,5.070079E5,6.573221E5,4.9056997E5,1.5342132E6,2.937458E5,1.2069856E6,9.970128E5,1.0221987E6,8.32429E5,5.8634044E5,7.167892E5,4.441218E5,5.709285E5,1.490081E6,5.5048906E5,9.300853E5,7.71947E5,4.4396766E5,1.2597081E6,1.911968E6,1.2984026E6,1.3389461E6,1.1472286E6,5.2383384E5,1.240261E6,1.2495029E6,-6.46551E5,8.8199606E5,1.8117191E6,8.542115E5,1.3463044E6,1.524428E6,-1.2259084E6,-1.6150631E6,4.0889222E6,1.7275532E6,2.3363085E6,2.588851E6,1.4516261E6,1.6067824E6,2.3882138E6,3.088117E6,1.9143905E6,2.697916E6,3.5952398E6,3.5257482E6,2.4218582E6,1.0652114E6,2.1983082E6],"split_indices":[2,2,2,0,3,2,2,2,2,0,2,5,5,5,5,1,3,5,3,1,4,5,5,1,2,1,0,2,4,0,1,4,2,2,1,5,5,0,5,2,1,5,5,0,0,1,5,2,1,4,4,2,5,4,1,1,4,2,1,5,1,2,2,0,0,0,0,0,0,0,0,0,0,0,0,0,0,0,0,0,0,0,0,0,0,0,0,0,0,0,0,0,0,0,0,0,0,0,0,0,0,0,0,0,0,0,0,0,0,0,0,0,0,0,0,0,0,0,0,0,0,0,0,0,0,0,0],"split_type":[0,0,0,0,0,0,0,0,0,0,0,0,0,0,0,0,0,0,0,0,0,0,0,0,0,0,0,0,0,0,0,0,0,0,0,0,0,0,0,0,0,0,0,0,0,0,0,0,0,0,0,0,0,0,0,0,0,0,0,0,0,0,0,0,0,0,0,0,0,0,0,0,0,0,0,0,0,0,0,0,0,0,0,0,0,0,0,0,0,0,0,0,0,0,0,0,0,0,0,0,0,0,0,0,0,0,0,0,0,0,0,0,0,0,0,0,0,0,0,0,0,0,0,0,0,0,0],"sum_hessian":[6.7E4,6.4119E4,2.881E3,4.4594E4,1.9525E4,2.106E3,7.75E2,3.2202E4,1.2392E4,2.478E3,1.7047E4,9.95E2,1.111E3,3.12E2,4.63E2,1.7491E4,1.4711E4,3.698E3,8.694E3,2.82E2,2.196E3,1.5718E4,1.329E3,2.69E2,7.26E2,5.13E2,5.98E2,1.44E2,1.68E2,1.88E2,2.75E2,1.6014E4,1.477E3,1.0094E4,4.617E3,1.512E3,2.186E3,1.044E3,7.65E3,2.76E2,6E0,1.548E3,6.48E2,9.634E3,6.084E3,8.8E1,1.241E3,1.08E2,1.61E2,6.56E2,7E1,4.1E1,4.72E2,1.93E2,4.05E2,9E0,1.35E2,3.8E1,1.3E2,5.7E1,1.31E2,2.02E2,7.3E1,1.4868E4,1.146E3,7.89E2,6.88E2,9.172E3,9.22E2,4.373E3,2.44E2,4.1E1,1.471E3,8.4E2,1.346E3,4.33E2,6.11E2,2.049E3,5.601E3,2.15E2,6.1E1,4E0,2E0,6.6E2,8.88E2,1.74E2,4.74E2,5.315E3,4.319E3,3.352E3,2.732E3,6.5E1,2.3E1,7.87E2,4.54E2,6E0,1.02E2,6.8E1,9.3E1,2.96E2,3.6E2,3.7E1,3.3E1,3.9E1,2E0,8E0,4.64E2,5.4E1,1.39E2,4.04E2,1E0,1E0,8E0,3.1E1,1.04E2,2.6E1,1.2E1,1.2E2,1E1,1.7E1,4E1,5.7E1,7.4E1,2.1E1,1.81E2,2E1,5.3E1],"tree_param":{"num_deleted":"0","num_feature":"6","num_nodes":"127","size_leaf_vector":"0"}},{"base_weights":[1.2325279E6,1.1098048E6,3.962497E6,7.629065E5,1.3557199E6,3.4688315E6,6.0971195E6,9.556389E5,6.259597E5,1.290335E6,2.1855342E6,3.0524448E6,4.0182258E6,6.897648E6,5.4809285E6,8.3841756E5,1.2180664E6,5.5583E5,9.502734E5,1.4490171E6,1.03134944E6,1.977478E6,2.6503315E6,2.6446768E6,3.2121885E6,4.484605E6,3.6713485E6,6.2911745E6,8.598143E6,5.8960145E6,4.2939575E6,4.609995E5,9.026375E5,9.9504356E5,1.4478104E6,5.375221E5,1.688452E6,8.0587306E5,1.495002E6,9.2028E5,1.5315111E6,8.6705844E5,1.2838655E6,1.3718944E6,2.1075035E6,2.2575235E6,3.0567288E6,3.7684135E6,2.4151765E6,3.4521905E6,2.8550262E6,3.7940422E6,5.1605285E6,4.2921905E6,3.4521835E6,8.136531E6,5.1435445E6,5.211615E6,1.0522921E7,5.5719465E6,8.809638E6,-2.6327582E6,4.583006E6,3.1496894E5,6.025878E5,7.789939E5,1.0368662E6,8.886717E5,1.3104045E6,1.8805236E6,1.1081874E6,4.1649584E5,6.2359075E5,1.5173566E6,4.0723585E6,9.917671E5,7.3641494E5,2.0862111E6,1.3118754E6,1.8512604E6,8.9771256E5,1.3859151E6,1.7172244E6,2.3569132E6,8.435279E5,2.1041698E6,1.222336E6,-2.2737544E5,1.5398814E6,3.9976505E6,2.076598E6,3.3821252E6,1.7638589E6,3.4211462E6,2.4904725E6,2.9325225E6,5.004548E6,2.5981238E6,1.1762352E6,4.343352E6,3.144218E6,3.5510938E6,2.5400005E6,2.2877838E6,4.4073305E6,5.2286015E6,-4.601394E6,3.8773292E6,5.674895E6,3.7956145E6,2.8420028E6,4.343849E6,9.187459E6,3.0093235E6,6.2281425E6,5.571236E6,-1.35002E6,1.086321E7,5.0848115E6,6.0443175E6,2.5834818E6,1.2994023E7,6.269615E6,7.3845E3,-3.5152672E6,5.106707E6,2.3110305E6],"categories":[],"categories_nodes":[],"categories_segments":[],"categories_sizes":[],"default_left":[true,true,true,true,true,true,true,true,true,true,true,true,true,true,true,true,true,true,true,true,true,true,true,true,true,true,true,true,true,true,true,true,true,true,true,true,true,true,true,true,true,true,true,true,true,true,true,true,true,true,true,true,true,true,true,true,true,true,true,true,true,true,true,false,false,false,false,false,false,false,false,false,false,false,false,false,false,false,false,false,false,false,false,false,false,false,false,false,false,false,false,false,false,false,false,false,false,false,false,false,false,false,false,false,false,false,false,false,false,false,false,false,false,false,false,false,false,false,false,false,false,false,false,false,false,false,false],"id":4,"left_children":[1,3,5,7,9,11,13,15,17,19,21,23,25,27,29,31,33,35,37,39,41,43,45,47,49,51,53,55,57,59,61,63,65,67,69,71,73,75,77,79,81,83,85,87,89,91,93,95,97,99,101,103,105,107,109,111,113,115,117,119,121,123,125,-1,-1,-1,-1,-1,-1,-1,-1,-1,-1,-1,-1,-1,-1,-1,-1,-1,-1,-1,-1,-1,-1,-1,-1,-1,-1,-1,-1,-1,-1,-1,-1,-1,-1,-1,-1,-1,-1,-1,-1,-1,-1,-1,-1,-1,-1,-1,-1,-1,-1,-1,-1,-1,-1,-1,-1,-1,-1,-1,-1,-1,-1,-1,-1],"loss_changes":[2.2442956E16,5.468885E15,3.0158745E15,7.01511E14,2.0329154E15,5.2371972E14,2.2856527E14,3.3883856E14,3.532326E14,1.4279177E15,2.5963077E14,7.859468E13,1.4644335E14,1.841392E14,1.27418795E14,1.8476037E14,1.7322999E14,2.6432571E14,2.1620839E14,9.392063E14,5.4725077E14,1.4640255E14,1.27832185E14,8.941558E13,7.20921E13,1.7879734E14,6.450987E13,3.2664407E14,3.23221E14,1.652494E14,1.8024703E14,2.2822835E13,1.0753417E14,5.696979E13,2.44367E14,1.30874364E14,7.6619465E13,2.7507923E13,5.984111E13,5.953979E13,5.019786E14,2.7885505E14,2.6029112E14,9.115605E13,8.276939E13,2.3442576E14,7.649739E13,5.042023E13,6.947539E13,1.4195833E14,7.649927E13,1.8760363E14,1.6493694E14,6.289389E13,8.0578955E13,2.1917057E14,2.3588256E14,6.179431E13,1.1381663E13,2.7659912E14,1.4172963E14,9.345759E12,8.4574885E13,0E0,0E0,0E0,0E0,0E0,0E0,0E0,0E0,0E0,0E0,0E0,0E0,0E0,0E0,0E0,0E0,0E0,0E0,0E0,0E0,0E0,0E0,0E0,0E0,0E0,0E0,0E0,0E0,0E0,0E0,0E0,0E0,0E0,0E0,0E0,0E0,0E0,0E0,0E0,0E0,0E0,0E0,0E0,0E0,0E0,0E0,0E0,0E0,0E0,0E0,0E0,0E0,0E0,0E0,0E0,0E0,0E0,0E0,0E0,0E0,0E0,0E0,0E0,0E0],"parents":[2147483647,0,0,1,1,2,2,3,3,4,4,5,5,6,6,7,7,8,8,9,9,10,10,11,11,12,12,13,13,14,14,15,15,16,16,17,17,18,18,19,19,20,20,21,21,22,22,23,23,24,24,25,25,26,26,27,27,28,28,29,29,30,30,31,31,32,32,33,33,34,34,35,35,36,36,37,37,38,38,39,39,40,40,41,41,42,42,43,43,44,44,45,45,46,46,47,47,48,48,49,49,50,50,51,51,52,52,53,53,54,54,55,55,56,56,57,57,58,58,59,59,60,60,61,61,62,62],"right_children":[2,4,6,8,10,12,14,16,18,20,22,24,26,28,30,32,34,36,38,40,42,44,46,48,50,52,54,56,58,60,62,64,66,68,70,72,74,76,78,80,82,84,86,88,90,92,94,96,98,100,102,104,106,108,110,112,114,116,118,120,122,124,126,-1,-1,-1,-1,-1,-1,-1,-1,-1,-1,-1,-1,-1,-1,-1,-1,-1,-1,-1,-1,-1,-1,-1,-1,-1,-1,-1,-1,-1,-1,-1,-1,-1,-1,-1,-1,-1,-1,-1,-1,-1,-1,-1,-1,-1,-1,-1,-1,-1,-1,-1,-1,-1,-1,-1,-1,-1,-1,-1,-1,-1,-1,-1,-1],"split_conditions":[7.65E1,4.95E1,1.265E2,2.1077215E1,6.35E1,9.35E1,2.1077215E1,5.5E0,7.6491857E-1,2.75E1,7.6491857E-1,7.6491857E-1,2.1077215E1,9.5E0,9.5E0,3.25E1,3.65E1,1.25E1,3.95E1,1.5E0,5.95E1,6.55E1,6.75E1,8.75E1,2.75E1,6.5E0,5E-1,1.25E1,1.25E1,1.845E2,1.35E2,3.15E1,2.6491854E-1,5E-1,1.5E0,3.45E1,4.45E1,5E-1,5E-1,2.5E0,7.6491857E-1,1.5E0,2.5E0,1.5E0,2.5E0,1.75E1,2.75E1,1.5E0,2.15E1,5E-1,5.5E0,7.6491857E-1,1.255E2,1.235E2,8.5E0,1.64E2,7.6491857E-1,1.845E2,1.5E0,1.5E0,2.75E1,2.6077215E1,1.5E0,9.449069E4,1.8077634E5,2.3369817E5,3.1105988E5,2.6660153E5,3.9312138E5,5.641571E5,3.3245622E5,1.2494876E5,1.8707723E5,4.55207E5,1.2217076E6,2.9753016E5,2.2092448E5,6.258634E5,3.9356262E5,5.553781E5,2.6931378E5,4.1577456E5,5.1516734E5,7.07074E5,2.5305838E5,6.3125094E5,3.667008E5,-6.821263E4,4.6196444E5,1.1992952E6,6.2297944E5,1.0146376E6,5.291577E5,1.02634394E6,7.4714175E5,8.797568E5,1.5013645E6,7.794371E5,3.528706E5,1.3030056E6,9.4326544E5,1.0653281E6,7.620002E5,6.863351E5,1.3221992E6,1.5685805E6,-1.3804182E6,1.1631989E6,1.7024686E6,1.1386844E6,8.526009E5,1.3031548E6,2.7562378E6,9.0279706E5,1.8684429E6,1.6713709E6,-4.0500603E5,3.2589632E6,1.5254435E6,1.8132954E6,7.7504456E5,3.898207E6,1.8808846E6,2.21535E3,-1.0545802E6,1.5320121E6,6.933092E5],"split_indices":[2,2,2,5,2,2,5,1,0,5,0,0,5,1,1,2,2,1,2,1,2,2,2,2,5,1,4,5,5,2,2,2,0,4,3,2,2,4,4,5,0,3,3,1,5,5,5,4,1,4,1,0,2,2,1,2,0,2,4,0,5,5,4,0,0,0,0,0,0,0,0,0,0,0,0,0,0,0,0,0,0,0,0,0,0,0,0,0,0,0,0,0,0,0,0,0,0,0,0,0,0,0,0,0,0,0,0,0,0,0,0,0,0,0,0,0,0,0,0,0,0,0,0,0,0,0,0],"split_type":[0,0,0,0,0,0,0,0,0,0,0,0,0,0,0,0,0,0,0,0,0,0,0,0,0,0,0,0,0,0,0,0,0,0,0,0,0,0,0,0,0,0,0,0,0,0,0,0,0,0,0,0,0,0,0,0,0,0,0,0,0,0,0,0,0,0,0,0,0,0,0,0,0,0,0,0,0,0,0,0,0,0,0,0,0,0,0,0,0,0,0,0,0,0,0,0,0,0,0,0,0,0,0,0,0,0,0,0,0,0,0,0,0,0,0,0,0,0,0,0,0,0,0,0,0,0,0],"sum_hessian":[6.7E4,6.4119E4,2.881E3,2.66E4,3.7519E4,2.342E3,5.39E2,1.1047E4,1.5553E4,3.4781E4,2.738E3,1.336E3,1.006E3,2.3E2,3.09E2,7.639E3,3.408E3,1.279E4,2.763E3,2.1564E4,1.3217E4,1.895E3,8.43E2,3.81E2,9.55E2,4.24E2,5.82E2,1.73E2,5.7E1,2.26E2,8.3E1,1.112E3,6.527E3,1.732E3,1.676E3,1.2588E4,2.02E2,2.186E3,5.77E2,2.912E3,1.8652E4,8.01E3,5.207E3,3.37E2,1.558E3,4.32E2,4.11E2,6.2E1,3.19E2,5.66E2,3.89E2,2.13E2,2.11E2,1.47E2,4.35E2,6.4E1,1.09E2,2.2E1,3.5E1,2.06E2,2E1,3E0,8E1,5.49E2,5.63E2,3.401E3,3.126E3,1.298E3,4.34E2,7.35E2,9.41E2,5.234E3,7.354E3,1.9E2,1.2E1,5.91E2,1.595E3,1.34E2,4.43E2,6.7E1,2.845E3,1.046E4,8.192E3,1.23E2,7.887E3,3.61E2,4.846E3,3.2E1,3.05E2,2.3E1,1.535E3,1.3E2,3.02E2,2.47E2,1.64E2,3.9E1,2.3E1,2.77E2,4.2E1,1.42E2,4.24E2,1.18E2,2.71E2,6.3E1,1.5E2,2.1E2,1E0,1.16E2,3.1E1,2.75E2,1.6E2,1.5E1,4.9E1,3.8E1,7.1E1,2.1E1,1E0,3.2E1,3E0,1.77E2,2.9E1,6E0,1.4E1,1E0,2E0,6.4E1,1.6E1],"tree_param":{"num_deleted":"0","num_feature":"6","num_nodes":"127","size_leaf_vector":"0"}},{"base_weights":[8.6354875E5,7.7737906E5,2.7943872E6,6.148922E5,1.067009E6,2.3350135E6,4.0262412E6,5.1193925E5,8.429455E5,1.70179E6,9.6059544E5,2.0675698E6,2.5676482E6,2.9714825E6,4.216553E6,4.566413E5,9.7049344E5,1.0639529E6,7.6229606E5,1.8813851E6,1.399978E6,5.546984E5,1.0216334E6,2.4656898E6,1.9180276E6,1.6371885E6,2.6610082E6,6.300105E6,2.3725615E6,4.0667845E6,6.6081805E6,5.59918E5,2.779524E5,1.1072051E6,7.419112E5,1.8037536E6,1.0231843E6,5.724191E5,8.457189E5,1.1993585E6,1.9336341E6,1.2228691E6,1.6236741E6,3.922161E5,7.4876325E5,1.4149546E6,9.55658E5,1.9789609E6,2.7617608E6,1.7078935E6,2.5010905E6,2.728049E6,-2.5086236E5,2.1552968E6,2.8639545E6,7.2549685E6,2.3664665E6,1.8406685E6,5.0176165E6,4.8227495E6,3.7531452E6,9.352608E6,4.3118615E6,4.0404822E5,6.386208E5,4.777468E4,3.1551878E5,7.1795906E5,1.1631825E6,3.5586806E5,8.0347356E5,1.9107592E6,4.2142047E5,8.127917E5,1.1126765E6,5.2030984E5,7.3758525E5,1.3546435E6,7.757396E5,9.029052E5,2.578486E6,2.0502249E6,1.6041941E6,1.2484111E6,-3.3492903E5,1.5665306E6,7.470443E6,2.629991E5,1.0199763E6,2.5405802E6,7.2810825E5,1.2509945E6,1.6933932E6,9.1979244E5,1.550809E6,3.323198E6,1.5728322E6,3.5435678E6,2.1668178E6,1.9281499E6,2.8615694E5,2.8919805E6,1.2400582E6,1.1267878E6,4.1141152E6,-3.0563598E6,1.5709048E5,3.8883088E6,1.8817956E6,2.8806108E6,-2.0604316E6,8.711653E6,5.0734985E6,4.1900666E5,3.525104E6,2.7355115E6,-2.06508E5,1.6843338E6,7.182481E6,3.5807275E6,5.472025E6,2.8207862E6,4.1159822E6,-5.397172E6,1.0695738E7,8.789449E6,1.6363574E6],"categories":[],"categories_nodes":[],"categories_segments":[],"categories_sizes":[],"default_left":[true,true,true,true,true,true,true,true,true,true,true,true,true,true,true,true,true,true,true,true,true,true,true,true,true,true,true,true,true,true,true,true,true,true,true,true,true,true,true,true,true,true,true,true,true,true,true,true,true,true,true,true,true,true,true,true,true,true,true,true,true,true,true,false,false,false,false,false,false,false,false,false,false,false,false,false,false,false,false,false,false,false,false,false,false,false,false,false,false,false,false,false,false,false,false,false,false,false,false,false,false,false,false,false,false,false,false,false,false,false,false,false,false,false,false,false,false,false,false,false,false,false,false,false,false,false,false],"id":5,"left_children":[1,3,5,7,9,11,13,15,17,19,21,23,25,27,29,31,33,35,37,39,41,43,45,47,49,51,53,55,57,59,61,63,65,67,69,71,73,75,77,79,81,83,85,87,89,91,93,95,97,99,101,103,105,107,109,111,113,115,117,119,121,123,125,-1,-1,-1,-1,-1,-1,-1,-1,-1,-1,-1,-1,-1,-1,-1,-1,-1,-1,-1,-1,-1,-1,-1,-1,-1,-1,-1,-1,-1,-1,-1,-1,-1,-1,-1,-1,-1,-1,-1,-1,-1,-1,-1,-1,-1,-1,-1,-1,-1,-1,-1,-1,-1,-1,-1,-1,-1,-1,-1,-1,-1,-1,-1,-1],"loss_changes":[1.114544E16,3.0178416E15,1.6101489E15,9.64334E14,1.5553773E15,1.24537945E14,1.432393E14,7.1749254E14,2.2696433E14,1.766724E14,4.8856756E14,5.3377585E13,9.224033E13,2.282696E14,2.0774005E14,4.6614998E14,9.43658E13,1.0112286E14,1.4787411E14,7.148114E13,4.7062373E13,8.1153675E13,4.4396862E14,3.2434385E13,8.320855E13,2.148828E14,9.7383015E13,5.044097E13,1.3848733E14,1.2866541E14,1.928498E14,1.961678E14,8.002967E13,4.065106E13,2.6878308E13,2.5376143E13,6.0062433E13,2.4248513E13,2.3061934E14,5.8998942E13,7.05341E13,2.8071638E13,1.700505E14,1.1394491E14,4.16738E13,1.1032429E14,3.1232895E14,5.100428E13,6.7207917E13,1.6478957E14,8.859081E13,1.4184827E14,4.511604E13,1.3155928E14,6.474502E13,2.8944053E11,9.804957E12,1.6360413E14,1.1057611E14,1.23947924E14,1.3791623E14,3.7470073E14,2.49173E14,0E0,0E0,0E0,0E0,0E0,0E0,0E0,0E0,0E0,0E0,0E0,0E0,0E0,0E0,0E0,0E0,0E0,0E0,0E0,0E0,0E0,0E0,0E0,0E0,0E0,0E0,0E0,0E0,0E0,0E0,0E0,0E0,0E0,0E0,0E0,0E0,0E0,0E0,0E0,0E0,0E0,0E0,0E0,0E0,0E0,0E0,0E0,0E0,0E0,0E0,0E0,0E0,0E0,0E0,0E0,0E0,0E0,0E0,0E0,0E0,0E0,0E0,0E0,0E0],"parents":[2147483647,0,0,1,1,2,2,3,3,4,4,5,5,6,6,7,7,8,8,9,9,10,10,11,11,12,12,13,13,14,14,15,15,16,16,17,17,18,18,19,19,20,20,21,21,22,22,23,23,24,24,25,25,26,26,27,27,28,28,29,29,30,30,31,31,32,32,33,33,34,34,35,35,36,36,37,37,38,38,39,39,40,40,41,41,42,42,43,43,44,44,45,45,46,46,47,47,48,48,49,49,50,50,51,51,52,52,53,53,54,54,55,55,56,56,57,57,58,58,59,59,60,60,61,61,62,62],"right_children":[2,4,6,8,10,12,14,16,18,20,22,24,26,28,30,32,34,36,38,40,42,44,46,48,50,52,54,56,58,60,62,64,66,68,70,72,74,76,78,80,82,84,86,88,90,92,94,96,98,100,102,104,106,108,110,112,114,116,118,120,122,124,126,-1,-1,-1,-1,-1,-1,-1,-1,-1,-1,-1,-1,-1,-1,-1,-1,-1,-1,-1,-1,-1,-1,-1,-1,-1,-1,-1,-1,-1,-1,-1,-1,-1,-1,-1,-1,-1,-1,-1,-1,-1,-1,-1,-1,-1,-1,-1,-1,-1,-1,-1,-1,-1,-1,-1,-1,-1,-1,-1,-1,-1,-1,-1,-1],"split_conditions":[8.15E1,5.65E1,1.235E2,5E-1,2.5E0,8.95E1,2.5E0,7.6491857E-1,1.75E1,2.75E1,1.5E0,1.75E1,1.5E0,1.25E1,1.835E2,2.75E1,2.75E1,2.5E0,3.95E1,1.5E0,6.15E1,5E-1,1.25E1,8.5E0,1.65E1,9.75E1,7.6491857E-1,1.835E2,1.5E0,5.5E0,2.3577215E1,3.45E1,1.5E0,1.5E0,1.5E0,1.15E1,3.65E1,6.5E0,1.5E0,6.9E1,1.15E1,2.45E1,2.3E1,7.6491857E-1,2.5E0,7.6491857E-1,7.15E1,8.75E1,1.45E1,1.25E1,2.35E1,9.15E1,9.85E1,3.5E0,2.15E1,1.5E0,7.6491857E-1,1.825E2,2.1077215E1,7.6491857E-1,7.5E0,6E0,7.6491857E-1,1.2121447E5,1.9158625E5,1.4332404E4,9.465564E4,2.1538773E5,3.4895475E5,1.0676042E5,2.4104208E5,5.732278E5,1.2642615E5,2.4383752E5,3.3380297E5,1.5609295E5,2.2127558E5,4.0639306E5,2.3272189E5,2.7087156E5,7.735458E5,6.150675E5,4.8125825E5,3.7452334E5,-1.0047871E5,4.6995922E5,2.241133E6,7.8899734E4,3.059929E5,7.621741E5,2.1843248E5,3.7529838E5,5.08018E5,2.7593775E5,4.6524272E5,9.9695944E5,4.718497E5,1.0630704E6,6.500454E5,5.78445E5,8.5847086E4,8.675942E5,3.720175E5,3.3803634E5,1.2342346E6,-9.1690794E5,4.712715E4,1.1664926E6,5.645387E5,8.6418325E5,-6.181295E5,2.613496E6,1.5220496E6,1.25702E5,1.0575312E6,8.206535E5,-6.1952402E4,5.0530016E5,2.1547445E6,1.0742182E6,1.6416076E6,8.4623594E5,1.2347948E6,-1.6191516E6,3.2087215E6,2.6368348E6,4.9090722E5],"split_indices":[2,2,2,4,3,2,1,0,5,5,1,5,1,5,2,5,5,5,2,1,2,4,5,1,1,2,0,2,4,1,5,2,1,1,1,1,2,1,3,2,1,1,1,0,5,0,2,2,1,1,1,2,2,1,1,1,0,2,5,0,1,1,0,0,0,0,0,0,0,0,0,0,0,0,0,0,0,0,0,0,0,0,0,0,0,0,0,0,0,0,0,0,0,0,0,0,0,0,0,0,0,0,0,0,0,0,0,0,0,0,0,0,0,0,0,0,0,0,0,0,0,0,0,0,0,0,0],"split_type":[0,0,0,0,0,0,0,0,0,0,0,0,0,0,0,0,0,0,0,0,0,0,0,0,0,0,0,0,0,0,0,0,0,0,0,0,0,0,0,0,0,0,0,0,0,0,0,0,0,0,0,0,0,0,0,0,0,0,0,0,0,0,0,0,0,0,0,0,0,0,0,0,0,0,0,0,0,0,0,0,0,0,0,0,0,0,0,0,0,0,0,0,0,0,0,0,0,0,0,0,0,0,0,0,0,0,0,0,0,0,0,0,0,0,0,0,0,0,0,0,0,0,0,0,0,0,0],"sum_hessian":[6.7E4,6.4139E4,2.861E3,4.109E4,2.3049E4,2.086E3,7.75E2,2.8312E4,1.2778E4,3.307E3,1.9742E4,9.75E2,1.111E3,1.21E2,6.54E2,2.5267E4,3.045E3,3.413E3,9.365E3,2.07E3,1.237E3,2.582E3,1.716E4,2.62E2,7.13E2,1.03E2,1.008E3,1.7E1,1.04E2,6.18E2,3.6E1,1.6011E4,9.256E3,1.903E3,1.142E3,1.76E2,3.237E3,2.861E3,6.504E3,1.49E2,1.921E3,6.94E2,5.43E2,1.407E3,1.175E3,2.462E3,1.4698E4,1.02E2,1.6E2,5.27E2,1.86E2,6.5E1,3.8E1,2.92E2,7.16E2,1.3E1,4E0,8.8E1,1.6E1,1.77E2,4.41E2,1.5E1,2.1E1,5.374E3,1.0637E4,1.299E3,7.957E3,2.41E2,1.662E3,1.58E2,9.84E2,1.63E2,1.3E1,9.69E2,2.268E3,2.178E3,6.83E2,7.84E2,5.72E3,1.24E2,2.5E1,1.415E3,5.06E2,6.83E2,1.1E1,5.39E2,4E0,1.168E3,2.39E2,1.2E1,1.163E3,1.553E3,9.09E2,1.3865E4,8.33E2,2.2E1,8E1,6.7E1,9.3E1,4.56E2,7.1E1,1.41E2,4.5E1,3.1E1,3.4E1,4E0,3.4E1,3.8E1,2.54E2,7.14E2,2E0,6E0,7E0,2E0,2E0,6.1E1,2.7E1,7E0,9E0,6.3E1,1.14E2,1.26E2,3.15E2,1E0,1.4E1,7E0,1.4E1],"tree_param":{"num_deleted":"0","num_feature":"6","num_nodes":"127","size_leaf_vector":"0"}},{"base_weights":[6.050477E5,5.243355E5,1.6510859E6,4.22297E5,7.1244406E5,1.4163412E6,2.822745E6,3.6457875E5,8.1764725E5,5.9024125E5,8.840489E5,1.1352782E6,1.7270151E6,2.3075498E6,3.1908442E6,3.3105862E5,6.9949844E5,6.659472E5,1.02148025E6,2.9442062E5,6.360381E5,5.1982975E5,9.421704E5,1.4134986E6,9.27574E5,1.5881296E6,2.080642E6,3.3210082E6,1.8597519E6,4.140639E6,2.8875535E6,5.076061E5,2.6273344E5,6.129087E5,1.1417059E6,9.456101E5,5.682018E5,8.855625E5,1.2949064E6,4.1330872E5,1.0234009E5,4.795635E5,7.0377494E5,5.2940406E5,-1.2613942E6,1.177329E6,8.5864025E5,1.3425315E6,2.6972068E6,9.434846E5,-1.9347396E6,1.5158729E6,2.1774992E6,1.4960639E6,2.3463372E6,1.4076415E6,6.6442845E6,3.137406E6,1.02168544E6,1.3640759E6,5.472966E6,2.6776385E6,4.473693E6,3.8398694E5,6.2048794E5,2.2557831E5,4.1541122E5,4.7352572E5,8.207636E5,8.5666406E5,1.3677681E6,6.142497E5,1.0730519E6,5.4696725E5,9.84044E5,1.2687328E6,8.428656E5,1.1451452E6,2.241387E6,1.3022991E6,3.9581534E5,3.6016512E5,-2.5633076E4,6.361126E5,4.2283506E5,1.1005889E6,6.434049E5,1.5943868E6,5.1602953E5,-1.7292805E6,7.7296175E5,1.1051975E6,1.9172456E6,8.720963E5,-6.729296E5,1.191785E6,1.5462256E6,1.6501744E6,7.464339E6,9.990944E5,1.8239053E5,9.88973E5,-2.5868538E6,1.5535164E6,-7.0915775E5,2.559758E6,1.0136586E6,1.7494478E6,-2.707685E6,2.4834142E6,1.3194264E6,1.1179844E6,1.0117677E7,9.055962E6,4.1415605E6,1.7974492E6,5.0295155E6,1.2663411E6,-4.8164535E6,6.868057E6,-3.9109338E5,1.4601504E7,4.3013055E6,3.4633945E6,2.2814118E6,-7.8025105E6,4.988532E6],"categories":[],"categories_nodes":[],"categories_segments":[],"categories_sizes":[],"default_left":[true,true,true,true,true,true,true,true,true,true,true,true,true,true,true,true,true,true,true,true,true,true,true,true,true,true,true,true,true,true,true,true,true,true,true,true,true,true,true,true,true,true,true,true,true,true,true,true,true,true,true,true,true,true,true,true,true,true,true,true,true,true,true,false,false,false,false,false,false,false,false,false,false,false,false,false,false,false,false,false,false,false,false,false,false,false,false,false,false,false,false,false,false,false,false,false,false,false,false,false,false,false,false,false,false,false,false,false,false,false,false,false,false,false,false,false,false,false,false,false,false,false,false,false,false,false,false],"id":6,"left_children":[1,3,5,7,9,11,13,15,17,19,21,23,25,27,29,31,33,35,37,39,41,43,45,47,49,51,53,55,57,59,61,63,65,67,69,71,73,75,77,79,81,83,85,87,89,91,93,95,97,99,101,103,105,107,109,111,113,115,117,119,121,123,125,-1,-1,-1,-1,-1,-1,-1,-1,-1,-1,-1,-1,-1,-1,-1,-1,-1,-1,-1,-1,-1,-1,-1,-1,-1,-1,-1,-1,-1,-1,-1,-1,-1,-1,-1,-1,-1,-1,-1,-1,-1,-1,-1,-1,-1,-1,-1,-1,-1,-1,-1,-1,-1,-1,-1,-1,-1,-1,-1,-1,-1,-1,-1,-1],"loss_changes":[5.6558986E15,1.1936444E15,1.3159221E15,9.199895E14,4.581882E14,3.4731468E14,1.4435117E14,3.9487554E14,1.5816378E14,1.729382E14,1.9206288E14,1.202164E14,8.991353E13,1.4676266E14,1.21705415E14,3.8579893E14,1.2186849E14,8.004853E13,8.0240995E13,3.91216E13,1.1694095E14,2.2053483E13,1.5304794E14,7.80966E13,5.6793493E13,5.491411E13,7.911974E13,6.392292E14,2.4949371E14,3.994564E14,1.0621991E14,1.243181E14,1.3077115E14,7.722579E13,3.2528941E13,3.1519423E13,1.8773436E13,2.2914724E13,1.0019917E14,1.5953505E13,2.1686741E13,2.9446162E13,1.8422967E14,1.6953276E13,7.9996E12,1.074523E14,1.1993347E14,2.431891E13,2.1728427E14,5.0649207E13,1.5904492E13,1.033702E14,6.280383E13,1.8474936E14,4.796217E13,1.552016E14,1.8581733E14,2.2674676E14,2.117794E14,3.6012153E14,7.286652E14,9.048127E13,2.917337E14,0E0,0E0,0E0,0E0,0E0,0E0,0E0,0E0,0E0,0E0,0E0,0E0,0E0,0E0,0E0,0E0,0E0,0E0,0E0,0E0,0E0,0E0,0E0,0E0,0E0,0E0,0E0,0E0,0E0,0E0,0E0,0E0,0E0,0E0,0E0,0E0,0E0,0E0,0E0,0E0,0E0,0E0,0E0,0E0,0E0,0E0,0E0,0E0,0E0,0E0,0E0,0E0,0E0,0E0,0E0,0E0,0E0,0E0,0E0,0E0,0E0,0E0,0E0,0E0],"parents":[2147483647,0,0,1,1,2,2,3,3,4,4,5,5,6,6,7,7,8,8,9,9,10,10,11,11,12,12,13,13,14,14,15,15,16,16,17,17,18,18,19,19,20,20,21,21,22,22,23,23,24,24,25,25,26,26,27,27,28,28,29,29,30,30,31,31,32,32,33,33,34,34,35,35,36,36,37,37,38,38,39,39,40,40,41,41,42,42,43,43,44,44,45,45,46,46,47,47,48,48,49,49,50,50,51,51,52,52,53,53,54,54,55,55,56,56,57,57,58,58,59,59,60,60,61,61,62,62],"right_children":[2,4,6,8,10,12,14,16,18,20,22,24,26,28,30,32,34,36,38,40,42,44,46,48,50,52,54,56,58,60,62,64,66,68,70,72,74,76,78,80,82,84,86,88,90,92,94,96,98,100,102,104,106,108,110,112,114,116,118,120,122,124,126,-1,-1,-1,-1,-1,-1,-1,-1,-1,-1,-1,-1,-1,-1,-1,-1,-1,-1,-1,-1,-1,-1,-1,-1,-1,-1,-1,-1,-1,-1,-1,-1,-1,-1,-1,-1,-1,-1,-1,-1,-1,-1,-1,-1,-1,-1,-1,-1,-1,-1,-1,-1,-1,-1,-1,-1,-1,-1,-1,-1,-1,-1,-1,-1],"split_conditions":[6.75E1,5E-1,1.175E2,7.6491857E-1,5.6E1,7.6491857E-1,1.525E2,9.5E0,5.35E1,1.5E0,1.5E0,2.1077215E1,9.35E1,7.6491857E-1,5E-1,1.75E1,1.25E1,1.75E1,5.5E0,2.75E1,3.95E1,6.65E1,1.75E1,9.8E1,1.105E2,1.85E1,4.5E0,8.5E0,5.5E0,4.5E0,1.15E1,4.65E1,5.85E1,5.15E1,4.35E1,3.55E1,1.5E0,5.85E1,1.5E0,2.5E0,7.6491857E-1,1.75E1,1.5E0,2.5E0,2.5E1,6.25E1,6.65E1,7.45E1,1.05E1,2.05E1,2.5E0,1.75E1,2.35E1,1.105E2,1.5E0,1.485E2,2.1077215E1,3.5E0,1.445E2,1.25E1,1.58E2,4.5E0,1.535E2,1.15196086E5,1.8614639E5,6.76735E4,1.2462337E5,1.4205772E5,2.462291E5,2.5699923E5,4.1033047E5,1.842749E5,3.2191556E5,1.6409019E5,2.9521322E5,3.8061984E5,2.528597E5,3.435436E5,6.724161E5,3.9068975E5,1.1874461E5,1.0804954E5,-7.6899233E3,1.908338E5,1.2685052E5,3.301767E5,1.9302147E5,4.7831603E5,1.5480886E5,-5.1878416E5,2.3188853E5,3.3155925E5,5.751737E5,2.616289E5,-2.0187889E5,3.575355E5,4.6386772E5,4.9505234E5,2.2393018E6,2.997283E5,5.471716E4,2.966919E5,-7.760561E5,4.6605494E5,-2.1274733E5,7.6792744E5,3.040976E5,5.248344E5,-8.1230556E5,7.450243E5,3.9582794E5,3.353953E5,3.0353032E6,2.7167888E6,1.2424682E6,5.392348E5,1.5088548E6,3.7990234E5,-1.4449361E6,2.0604171E6,-1.17328016E5,4.3804515E6,1.2903918E6,1.0390184E6,6.8442356E5,-2.3407532E6,1.4965596E6],"split_indices":[2,4,2,0,2,0,2,1,2,1,1,5,2,0,4,5,1,5,1,5,2,2,5,2,2,1,1,1,1,1,1,2,2,2,2,2,0,2,0,5,0,5,3,5,5,2,2,2,1,1,1,1,1,2,0,2,5,1,2,5,2,1,2,0,0,0,0,0,0,0,0,0,0,0,0,0,0,0,0,0,0,0,0,0,0,0,0,0,0,0,0,0,0,0,0,0,0,0,0,0,0,0,0,0,0,0,0,0,0,0,0,0,0,0,0,0,0,0,0,0,0,0,0,0,0,0,0],"split_type":[0,0,0,0,0,0,0,0,0,0,0,0,0,0,0,0,0,0,0,0,0,0,0,0,0,0,0,0,0,0,0,0,0,0,0,0,0,0,0,0,0,0,0,0,0,0,0,0,0,0,0,0,0,0,0,0,0,0,0,0,0,0,0,0,0,0,0,0,0,0,0,0,0,0,0,0,0,0,0,0,0,0,0,0,0,0,0,0,0,0,0,0,0,0,0,0,0,0,0,0,0,0,0,0,0,0,0,0,0,0,0,0,0,0,0,0,0,0,0,0,0,0,0,0,0,0,0],"sum_hessian":[6.7E4,6.2202E4,4.798E3,4.0329E4,2.1873E4,3.999E3,7.99E2,3.5193E4,5.136E3,1.2778E4,9.095E3,2.102E3,1.897E3,3.36E2,4.63E2,3.1993E4,3.2E3,2.947E3,2.189E3,1.714E3,1.1064E4,1.253E3,7.842E3,8.96E2,1.206E3,1.366E3,5.31E2,1.01E2,2.35E2,1.09E2,3.54E2,8.925E3,2.3068E4,2.678E3,5.22E2,7.61E2,2.186E3,1.465E3,7.24E2,1.058E3,6.56E2,3.345E3,7.719E3,1.247E3,6E0,2.052E3,5.79E3,8.51E2,4.5E1,1.2E3,6E0,1.22E3,1.46E2,1.68E2,3.63E2,6.5E1,3.6E1,9.2E1,1.43E2,3.6E1,7.3E1,3.15E2,3.9E1,4.262E3,4.663E3,1.8555E4,4.513E3,1.605E3,1.073E3,2.33E2,2.89E2,2.13E2,5.48E2,2.082E3,1.04E2,1.44E2,1.321E3,6.27E2,9.7E1,1.9E1,1.039E3,2.17E2,4.39E2,8.87E2,2.458E3,1.017E3,6.702E3,1.4E1,1.233E3,5E0,1E0,1.872E3,1.8E2,5.74E3,5E1,4.93E2,3.58E2,3.8E1,7E0,1.118E3,8.2E1,1E0,5E0,1.2E3,2E1,1.09E2,3.7E1,1.59E2,9E0,3.19E2,4.4E1,6.4E1,1E0,1.7E1,1.9E1,5.5E1,3.7E1,1.38E2,5E0,8E0,2.8E1,7E0,6.6E1,1.03E2,2.12E2,1E0,3.8E1],"tree_param":{"num_deleted":"0","num_feature":"6","num_nodes":"127","size_leaf_vector":"0"}},{"base_weights":[4.2397134E5,3.671462E5,1.160431E6,2.4018508E5,4.4231778E5,9.288071E5,1.7798678E6,3.1207803E5,1.1728226E5,3.7635275E5,5.950602E5,7.7657006E5,1.1217891E6,1.4795391E6,2.2246712E6,2.1066555E5,4.2650428E5,9.497032E4,3.6899762E5,1.4335552E5,4.1345556E5,9.182407E5,5.490442E5,8.969888E5,5.61923E5,1.3149168E6,9.6286675E5,1.755788E6,1.0897868E6,2.1360302E6,3.9823602E6,2.8771703E5,5.9807855E4,6.178366E5,3.2200978E5,-6.697711E4,1.2189128E5,2.7777956E5,5.322907E5,1.8624633E5,-1.170056E5,4.8419728E5,2.9506666E5,1.1048716E6,4.88521E5,1.5440571E6,5.357977E5,9.197765E5,1.2383081E5,5.879564E5,-2.1216915E6,2.0942372E6,1.0551124E6,8.164172E5,1.296467E6,1.6398855E6,4.200468E6,1.2223682E6,-1.7494009E6,1.2259832E6,2.2958832E6,8.009146E6,5.340029E5,1.7937769E5,1.1103225E6,-2.4032918E4,2.6405E5,4.8706884E5,1.0210243E6,2.457387E5,5.2134512E5,4.5551176E4,-1.2606286E5,-1.0006401E5,1.3122223E5,3.9211347E5,4.57128E4,1.125555E6,4.127901E5,2.5344189E5,7.426639E4,-3.634684E5,5.23256E5,3.5040497E5,5.43565E5,2.2967627E5,3.65478E5,-2.5724236E4,1.2316149E6,-4.9993555E4,1.0129599E6,9.828471E5,1.8523878E6,3.3747288E5,5.676902E5,8.924542E5,2.9131738E6,2.0469386E6,-1.4388675E6,3.492593E5,8.9955206E5,-3.9206575E5,2.4239618E6,9.5079806E5,2.3199518E6,7.4810106E5,1.9885711E6,1.1276305E6,3.7690908E6,9.421089E5,2.093572E6,6.939859E5,5.653676E6,1.7459709E6,9.094377E5,6.59E5,-2.6850922E6,-5.7934956E5,2.21245E6,2.510441E6,1.0689411E6,8.67501E5,8.636561E6,1.7154864E6,-4.369932E6],"categories":[],"categories_nodes":[],"categories_segments":[],"categories_sizes":[],"default_left":[true,true,true,true,true,true,true,true,true,true,true,true,true,true,true,true,true,true,true,true,true,true,true,true,true,true,true,true,true,true,true,true,true,true,true,true,true,true,true,true,true,true,true,true,true,true,true,true,true,true,false,true,true,true,true,true,true,true,true,true,true,true,true,false,false,false,false,false,false,false,false,false,false,false,false,false,false,false,false,false,false,false,false,false,false,false,false,false,false,false,false,false,false,false,false,false,false,false,false,false,false,false,false,false,false,false,false,false,false,false,false,false,false,false,false,false,false,false,false,false,false,false,false,false,false],"id":7,"left_children":[1,3,5,7,9,11,13,15,17,19,21,23,25,27,29,31,33,35,37,39,41,43,45,47,49,51,53,55,57,59,61,63,65,67,69,71,73,75,77,79,81,83,85,87,89,91,93,95,97,99,-1,101,103,105,107,109,111,113,115,117,119,121,123,-1,-1,-1,-1,-1,-1,-1,-1,-1,-1,-1,-1,-1,-1,-1,-1,-1,-1,-1,-1,-1,-1,-1,-1,-1,-1,-1,-1,-1,-1,-1,-1,-1,-1,-1,-1,-1,-1,-1,-1,-1,-1,-1,-1,-1,-1,-1,-1,-1,-1,-1,-1,-1,-1,-1,-1,-1,-1,-1,-1,-1,-1],"loss_changes":[2.803528E15,5.9355106E14,6.868893E14,2.0438085E14,3.934217E14,1.0180844E14,1.7103982E14,1.6928573E14,4.7927783E13,2.3584149E14,1.7471175E14,5.0079587E13,4.5969438E13,8.228352E13,7.3134435E13,8.995108E13,1.368943E14,3.4215001E13,1.0204356E13,4.1898404E13,1.96997E14,1.1711208E14,1.3514195E14,2.1944464E13,5.0571176E13,1.3790026E14,4.037115E13,1.2231678E14,1.2522903E14,7.006756E13,3.2898225E14,4.5636534E14,4.4836497E13,1.2714734E14,6.732992E13,7.4457694E12,1.3947185E13,1.1868903E13,1.711745E13,2.4210252E13,8.398235E13,1.1683304E14,4.0465504E13,1.4647959E14,1.2600906E14,2.1539563E13,6.42103E13,6.3628733E13,1.1413905E14,5.1749725E13,0E0,1.4195504E14,6.653542E13,4.591793E13,1.0303945E14,1.3636951E14,9.798938E13,4.9697603E13,3.557228E13,1.3841116E14,1.091978E14,4.1796273E13,8.861142E13,0E0,0E0,0E0,0E0,0E0,0E0,0E0,0E0,0E0,0E0,0E0,0E0,0E0,0E0,0E0,0E0,0E0,0E0,0E0,0E0,0E0,0E0,0E0,0E0,0E0,0E0,0E0,0E0,0E0,0E0,0E0,0E0,0E0,0E0,0E0,0E0,0E0,0E0,0E0,0E0,0E0,0E0,0E0,0E0,0E0,0E0,0E0,0E0,0E0,0E0,0E0,0E0,0E0,0E0,0E0,0E0,0E0,0E0,0E0,0E0,0E0,0E0],"parents":[2147483647,0,0,1,1,2,2,3,3,4,4,5,5,6,6,7,7,8,8,9,9,10,10,11,11,12,12,13,13,14,14,15,15,16,16,17,17,18,18,19,19,20,20,21,21,22,22,23,23,24,24,25,25,26,26,27,27,28,28,29,29,30,30,31,31,32,32,33,33,34,34,35,35,36,36,37,37,38,38,39,39,40,40,41,41,42,42,43,43,44,44,45,45,46,46,47,47,48,48,49,49,51,51,52,52,53,53,54,54,55,55,56,56,57,57,58,58,59,59,60,60,61,61,62,62],"right_children":[2,4,6,8,10,12,14,16,18,20,22,24,26,28,30,32,34,36,38,40,42,44,46,48,50,52,54,56,58,60,62,64,66,68,70,72,74,76,78,80,82,84,86,88,90,92,94,96,98,100,-1,102,104,106,108,110,112,114,116,118,120,122,124,-1,-1,-1,-1,-1,-1,-1,-1,-1,-1,-1,-1,-1,-1,-1,-1,-1,-1,-1,-1,-1,-1,-1,-1,-1,-1,-1,-1,-1,-1,-1,-1,-1,-1,-1,-1,-1,-1,-1,-1,-1,-1,-1,-1,-1,-1,-1,-1,-1,-1,-1,-1,-1,-1,-1,-1,-1,-1,-1,-1,-1,-1],"split_conditions":[6.75E1,2.6491854E-1,9.65E1,2.75E1,5.95E1,7.6491857E-1,1.34E2,4.75E1,9.5E0,1.5E0,2.5E0,2.75E1,2.3577215E1,2.75E1,1.99E2,1.5E0,2.5E0,1.5E0,5.4E1,2.5E0,2.75E1,1.15E1,2.5E0,9.45E1,2.45E1,5E-1,1.5E0,1.255E2,1.255E2,2.5E0,2.75E1,3.65E1,4.55E1,5.4E1,5.5E0,1.5E0,3.15E1,4.65E1,5.75E1,2.75E1,5E-1,3.75E1,7.6491857E-1,1.5E0,1.75E1,7.6491857E-1,1.5E0,9.15E1,5.5E0,8.5E0,-6.365075E5,7.5E0,2.05E1,1.25E1,8.95E1,5.5E0,1.75E1,5.5E0,6.5E0,7.6491857E-1,1.5E0,1.5E0,1.05E1,5.381331E4,3.3309675E5,-7.2098755E3,7.9215E4,1.4612066E5,3.063073E5,7.372162E4,1.5640355E5,1.3665354E4,-3.781886E4,-3.0019203E4,3.936667E4,1.1763405E5,1.3713841E4,3.376665E5,1.2383703E5,7.603257E4,2.2279918E4,-1.0904052E5,1.5697681E5,1.0512149E5,1.630695E5,6.890288E4,1.0964341E5,-7.717271E3,3.6948447E5,-1.4998067E4,3.0388797E5,2.9485416E5,5.557164E5,1.0124187E5,1.7030706E5,2.6773628E5,8.739522E5,6.140816E5,-4.3166028E5,1.047778E5,2.6986562E5,-1.1761973E5,7.2718856E5,2.8523944E5,6.9598556E5,2.2443033E5,5.965714E5,3.3828916E5,1.1307272E6,2.826327E5,6.280716E5,2.0819577E5,1.6961029E6,5.2379128E5,2.728313E5,1.9770002E5,-8.055277E5,-1.7380488E5,6.63735E5,7.531323E5,3.2068234E5,2.6025031E5,2.5909685E6,5.1464594E5,-1.3109796E6],"split_indices":[2,0,2,5,2,0,2,2,1,1,3,5,5,5,2,3,3,1,2,3,5,1,5,2,1,4,4,2,2,1,5,2,2,2,1,3,2,2,2,5,4,2,0,1,1,0,1,2,1,1,0,5,1,1,2,1,5,1,1,0,4,1,1,0,0,0,0,0,0,0,0,0,0,0,0,0,0,0,0,0,0,0,0,0,0,0,0,0,0,0,0,0,0,0,0,0,0,0,0,0,0,0,0,0,0,0,0,0,0,0,0,0,0,0,0,0,0,0,0,0,0,0,0,0,0],"split_type":[0,0,0,0,0,0,0,0,0,0,0,0,0,0,0,0,0,0,0,0,0,0,0,0,0,0,0,0,0,0,0,0,0,0,0,0,0,0,0,0,0,0,0,0,0,0,0,0,0,0,0,0,0,0,0,0,0,0,0,0,0,0,0,0,0,0,0,0,0,0,0,0,0,0,0,0,0,0,0,0,0,0,0,0,0,0,0,0,0,0,0,0,0,0,0,0,0,0,0,0,0,0,0,0,0,0,0,0,0,0,0,0,0,0,0,0,0,0,0,0,0,0,0,0,0],"sum_hessian":[6.7E4,6.2202E4,4.798E3,2.3134E4,3.9068E4,3.494E3,1.304E3,1.4595E4,8.539E3,2.7287E4,1.1781E4,1.956E3,1.538E3,7.81E2,5.23E2,7.739E3,6.856E3,7.845E3,6.94E2,3.749E3,2.3538E4,1.466E3,1.0315E4,1.251E3,7.05E2,6.91E2,8.47E2,4.55E2,3.26E2,5E2,2.3E1,5.122E3,2.617E3,2.42E3,4.436E3,1.118E3,6.727E3,4.47E2,2.47E2,3.219E3,5.3E2,1.4732E4,8.806E3,1.021E3,4.45E2,1.34E2,1.0181E4,1.215E3,3.6E1,6.99E2,6E0,1.71E2,5.2E2,5.91E2,2.56E2,4.36E2,1.9E1,3.12E2,1.4E1,7.6E1,4.24E2,1E1,1.3E1,4.527E3,5.95E2,1.856E3,7.61E2,1.829E3,5.91E2,3.21E3,1.226E3,3.85E2,7.33E2,2.71E2,6.456E3,2.99E2,1.48E2,4E1,2.07E2,2.011E3,1.208E3,3.83E2,1.47E2,4.53E3,1.0202E4,4.568E3,4.238E3,1.03E2,9.18E2,2.2E2,2.25E2,4.9E1,8.5E1,1.412E3,8.769E3,1.2E3,1.5E1,1.6E1,2E1,3.97E2,3.02E2,2E1,1.51E2,4.82E2,3.8E1,5.6E2,3.1E1,2.41E2,1.5E1,1.73E2,2.63E2,6E0,1.3E1,1.15E2,1.97E2,4E0,1E1,2.7E1,4.9E1,3.6E2,6.4E1,1E0,9E0,1.1E1,2E0],"tree_param":{"num_deleted":"0","num_feature":"6","num_nodes":"125","size_leaf_vector":"0"}},{"base_weights":[2.9701353E5,2.5706802E5,8.1471175E5,2.0259045E5,3.5749878E5,6.9594275E5,1.4295468E6,1.6924669E5,4.309919E5,4.1933053E5,2.5790269E5,5.593428E5,8.462387E5,1.3462118E6,2.540962E6,3.5119672E5,1.3644484E5,5.993887E5,3.7254025E5,5.7145506E5,3.557001E5,2.3740108E5,5.778508E5,5.451118E5,2.2801988E6,1.113686E6,7.581712E5,1.7230111E6,1.0566864E6,-1.059952E6,3.0232055E6,2.6172822E5,5.6439294E5,1.18177484E5,3.1521603E5,5.158156E5,1.0496398E6,2.8268697E5,4.928694E5,4.552339E5,7.0942906E5,8.8254625E5,3.437177E5,2.4110348E5,-1.3067235E6,5.302224E5,5.2251225E6,6.927946E5,4.3503216E5,6.069091E6,6.4753256E5,1.4755399E6,3.4958847E5,1.2566854E6,6.7034475E5,5.08749E6,1.6066698E6,2.1916405E6,7.143049E5,8.319738E6,-4.0098568E6,4.8977655E6,1.320762E6,1.6099053E5,3.7348822E5,4.231583E5,7.913448E5,1.17466766E5,3.3028682E6,2.6359297E5,5.786872E5,8.200217E5,4.3339488E5,-1.2301772E5,1.2049518E6,3.4359234E5,1.8191723E5,9.7011744E5,4.0488928E5,6.49161E5,3.9634972E5,6.9504844E5,3.0072715E6,9.759797E5,-1.3229576E6,4.628067E4,3.662298E5,1.1467707E5,2.7026694E5,-2.1342858E5,-1.6819411E6,6.330132E5,-4.7397447E5,7.2898025E6,-1.5167985E6,7.744959E5,2.957056E5,-1.5823766E5,4.9548197E5,2.4096828E6,-1.220808E5,2.0434658E6,6.2977525E5,5.369172E5,-4.3294515E6,3.4768338E5,1.5746504E6,1.1294654E4,7.67561E5,1.9774334E4,1.015125E7,2.4484772E6,1.2003711E6,2.8163795E6,-1.3280604E6,-8.453984E5,8.502707E5,-2.41604E5,-5.833582E6,-8.0425644E5,8.213511E6,4.0303165E6,-3.5078553E5],"categories":[],"categories_nodes":[],"categories_segments":[],"categories_sizes":[],"default_left":[true,true,true,true,true,true,true,true,true,true,true,true,true,true,true,true,true,true,true,true,true,true,true,true,true,true,true,true,true,true,true,true,true,true,true,true,true,true,true,true,true,true,true,true,true,true,true,true,true,false,true,true,true,true,true,true,true,true,true,false,true,true,true,false,false,false,false,false,false,false,false,false,false,false,false,false,false,false,false,false,false,false,false,false,false,false,false,false,false,false,false,false,false,false,false,false,false,false,false,false,false,false,false,false,false,false,false,false,false,false,false,false,false,false,false,false,false,false,false,false,false,false,false],"id":8,"left_children":[1,3,5,7,9,11,13,15,17,19,21,23,25,27,29,31,33,35,37,39,41,43,45,47,49,51,53,55,57,59,61,63,65,67,69,71,73,75,77,79,81,83,85,87,89,91,93,95,97,-1,99,101,103,105,107,109,111,113,115,-1,117,119,121,-1,-1,-1,-1,-1,-1,-1,-1,-1,-1,-1,-1,-1,-1,-1,-1,-1,-1,-1,-1,-1,-1,-1,-1,-1,-1,-1,-1,-1,-1,-1,-1,-1,-1,-1,-1,-1,-1,-1,-1,-1,-1,-1,-1,-1,-1,-1,-1,-1,-1,-1,-1,-1,-1,-1,-1,-1,-1,-1,-1],"loss_changes":[1.3853524E15,3.4025375E14,3.4944444E14,3.0707097E14,1.3459649E14,8.214098E13,6.8452383E13,2.1000021E14,5.0340506E13,1.3041507E14,5.483757E13,5.0454256E13,4.4236955E13,7.716258E13,9.523983E13,1.0237692E14,9.734527E13,4.9203917E13,4.111921E13,6.346633E13,5.9776415E13,4.5353512E13,1.08785985E14,3.3756765E13,1.0123201E14,1.2998819E14,6.2336014E13,1.1434317E14,1.5853241E14,2.270453E14,1.4352381E14,4.2586866E13,5.056606E13,6.085321E13,3.7441143E13,2.7651E13,3.7666544E13,1.3360033E13,6.8048187E13,2.4431116E13,5.7951256E13,4.4771477E13,6.230219E13,2.8949086E13,7.435272E12,5.1911147E13,8.06567E13,2.8742257E13,4.322165E13,0E0,1.792444E13,1.5241926E14,1.3643191E14,6.1594126E13,7.873383E13,2.5641624E14,1.0103662E14,2.1263541E14,6.8155896E13,0E0,3.982413E13,4.225477E14,1.1917165E14,0E0,0E0,0E0,0E0,0E0,0E0,0E0,0E0,0E0,0E0,0E0,0E0,0E0,0E0,0E0,0E0,0E0,0E0,0E0,0E0,0E0,0E0,0E0,0E0,0E0,0E0,0E0,0E0,0E0,0E0,0E0,0E0,0E0,0E0,0E0,0E0,0E0,0E0,0E0,0E0,0E0,0E0,0E0,0E0,0E0,0E0,0E0,0E0,0E0,0E0,0E0,0E0,0E0,0E0,0E0,0E0,0E0,0E0,0E0,0E0],"parents":[2147483647,0,0,1,1,2,2,3,3,4,4,5,5,6,6,7,7,8,8,9,9,10,10,11,11,12,12,13,13,14,14,15,15,16,16,17,17,18,18,19,19,20,20,21,21,22,22,23,23,24,24,25,25,26,26,27,27,28,28,29,29,30,30,31,31,32,32,33,33,34,34,35,35,36,36,37,37,38,38,39,39,40,40,41,41,42,42,43,43,44,44,45,45,46,46,47,47,48,48,50,50,51,51,52,52,53,53,54,54,55,55,56,56,57,57,58,58,60,60,61,61,62,62],"right_children":[2,4,6,8,10,12,14,16,18,20,22,24,26,28,30,32,34,36,38,40,42,44,46,48,50,52,54,56,58,60,62,64,66,68,70,72,74,76,78,80,82,84,86,88,90,92,94,96,98,-1,100,102,104,106,108,110,112,114,116,-1,118,120,122,-1,-1,-1,-1,-1,-1,-1,-1,-1,-1,-1,-1,-1,-1,-1,-1,-1,-1,-1,-1,-1,-1,-1,-1,-1,-1,-1,-1,-1,-1,-1,-1,-1,-1,-1,-1,-1,-1,-1,-1,-1,-1,-1,-1,-1,-1,-1,-1,-1,-1,-1,-1,-1,-1,-1,-1,-1,-1,-1,-1],"split_conditions":[6.75E1,5E-1,1.235E2,7.6491857E-1,2.75E1,7.6491857E-1,1.835E2,1.25E1,1.75E1,7.6491857E-1,6.15E1,1.115E2,5E-1,2.1077215E1,7.5E0,5.5E0,9.5E0,6.05E1,5.35E1,5.25E1,2.5E0,2.45E1,2.3E1,2.1077215E1,1.25E1,1.5E0,1.25E1,1.245E2,5E-1,5E-1,2.75E1,4.65E1,5.15E1,6.55E1,1.25E1,7.5E0,1.5E0,5.15E1,5.95E1,1.25E1,2.15E1,1.7E1,7.5E0,4.35E1,4.35E1,1.15E1,2.45E1,1.25E1,2.3577215E1,1.8207274E6,3E0,2.75E1,1.025E2,3.5E0,1.75E1,7E0,4.5E0,1.5E0,2.3577215E1,2.4959215E6,3.5E0,7.6491857E-1,7.6491857E-1,4.829716E4,1.1204647E5,1.269475E5,2.3740345E5,3.524003E4,9.908605E5,7.907789E4,1.7360616E5,2.4600652E5,1.3001847E5,-3.6905316E4,3.6148553E5,1.0307771E5,5.457517E4,2.9103525E5,1.2146679E5,1.9474831E5,1.1890492E5,2.0851455E5,9.021815E5,2.927939E5,-3.968873E5,1.3884202E4,1.09868945E5,3.440312E4,8.1080086E4,-6.4028574E4,-5.0458234E5,1.8990397E5,-1.4219234E5,2.1869408E6,-4.5503956E5,2.3234877E5,8.871168E4,-4.7471297E4,1.486446E5,7.229049E5,-3.6624242E4,6.1303975E5,1.8893258E5,1.6107516E5,-1.2988355E6,1.04305016E5,4.7239512E5,3.3883965E3,2.3026831E5,5.9323003E3,3.045375E6,7.345432E5,3.6011134E5,8.449139E5,-3.9841812E5,-2.5361952E5,2.5508122E5,-7.24812E4,-1.7500746E6,-2.4127694E5,2.4640535E6,1.209095E6,-1.05235664E5],"split_indices":[2,4,2,0,5,0,2,5,5,0,2,2,4,5,5,1,1,2,2,2,5,1,1,5,5,0,5,2,4,4,5,2,2,2,1,5,1,2,2,5,1,1,5,2,2,1,1,1,5,0,1,5,2,1,5,1,1,0,5,0,1,0,0,0,0,0,0,0,0,0,0,0,0,0,0,0,0,0,0,0,0,0,0,0,0,0,0,0,0,0,0,0,0,0,0,0,0,0,0,0,0,0,0,0,0,0,0,0,0,0,0,0,0,0,0,0,0,0,0,0,0,0,0],"split_type":[0,0,0,0,0,0,0,0,0,0,0,0,0,0,0,0,0,0,0,0,0,0,0,0,0,0,0,0,0,0,0,0,0,0,0,0,0,0,0,0,0,0,0,0,0,0,0,0,0,0,0,0,0,0,0,0,0,0,0,0,0,0,0,0,0,0,0,0,0,0,0,0,0,0,0,0,0,0,0,0,0,0,0,0,0,0,0,0,0,0,0,0,0,0,0,0,0,0,0,0,0,0,0,0,0,0,0,0,0,0,0,0,0,0,0,0,0,0,0,0,0,0,0],"sum_hessian":[6.7E4,6.2202E4,4.798E3,4.0329E4,2.1873E4,4.023E3,7.75E2,3.5193E4,5.136E3,1.3493E4,8.38E3,2.11E3,1.913E3,7.23E2,5.2E1,5.374E3,2.9819E4,1.321E3,3.815E3,3.977E3,9.516E3,7.877E3,5.03E2,2.094E3,1.6E1,4.71E2,1.442E3,3.12E2,4.11E2,6E0,4.6E1,3.787E3,1.587E3,2.7056E4,2.763E3,1.116E3,2.05E2,2.186E3,1.629E3,2.161E3,1.816E3,2.1E2,9.306E3,7.859E3,1.8E1,4.99E2,4E0,8.92E2,1.202E3,4E0,1.2E1,3.19E2,1.52E2,2.14E2,1.228E3,9E0,3.03E2,9.4E1,3.17E2,1E0,5E0,2.1E1,2.5E1,1.993E3,1.794E3,9.8E2,6.07E2,2.7051E4,5E0,2.312E3,4.51E2,2.36E2,8.8E2,2.4E1,1.81E2,1.361E3,8.25E2,2.52E2,1.377E3,5.01E2,1.66E3,1.806E3,1E1,2.02E2,8E0,6.55E2,8.651E3,1.474E3,6.385E3,5E0,1.3E1,4.53E2,4.6E1,3E0,1E0,7.39E2,1.53E2,1.11E2,1.091E3,3E0,9E0,1.9E2,1.29E2,1.47E2,5E0,5.6E1,1.58E2,1.58E2,1.07E3,5E0,4E0,9.7E1,2.06E2,8E1,1.4E1,2.5E1,2.92E2,2E0,3E0,8E0,1.3E1,9E0,1.6E1],"tree_param":{"num_deleted":"0","num_feature":"6","num_nodes":"123","size_leaf_vector":"0"}},{"base_weights":[2.0817577E5,1.8501966E5,6.633723E5,2.9637518E4,2.0906303E5,5.6544906E5,1.1524854E6,-2.5697795E5,3.8627426E4,9.601761E4,2.4393939E5,4.9984088E5,7.3078706E5,2.0148995E5,1.2302195E6,-1.488105E5,-3.472128E5,7.769596E4,-2.8120893E4,1.9438898E5,5.8662168E4,7.078088E5,2.1077611E5,6.742676E5,4.1298178E5,-4.9390803E5,8.2994294E5,6.088183E5,-3.820334E6,2.797486E6,1.0687119E6,-1.8373445E5,2.5372642E5,-2.9272494E5,-4.4996038E5,7.3383766E4,5.617849E5,-1.8981752E4,-1.349781E6,1.4655179E4,2.3732861E5,-9.4003586E4,7.179476E4,9.341367E5,1.852551E5,-1.04568164E5,2.3977256E5,7.231747E5,-1.5747118E6,-7.65249E4,5.1745703E5,-1.1262854E6,9.739463E5,6.838293E5,1.4241944E6,1.1525702E6,-1.0833194E6,-6.13712E5,-4.6846375E6,6.323419E6,1.7689235E6,9.2957144E5,2.4476242E6,9.8723336E4,-2.3586748E5,-1.16780625E5,3.078695E5,-6.2229E5,-2.7140022E5,-6.153308E5,-4.156227E5,1.563576E4,1.09146555E5,1.0931882E6,-2.5550608E6,-2.4428084E4,3.291827E6,-1.1266579E6,-2.906122E6,2.1942662E4,-7.016118E5,1.626139E5,2.7166053E5,-1.2387473E5,8.1227056E5,4.8030098E4,1.3526736E5,3.497966E5,1.03597725E6,1.432909E5,1.4150835E6,-2.8500637E4,-3.1617166E5,4.0962022E5,2.1099703E5,8.8013894E5,5.778128E5,1.7931146E6,-5.1986975E6,1.8996366E5,-1.3404324E6,4.8222962E5,4.6128805E6,1.651653E6,-1.4712422E6,2.435013E5,1.6773356E6,1.278405E6,3.792463E5,5.054395E6,1.0727365E6,-2.1728735E6,1.6025409E6,-6.030816E6,9.0740675E5,1.0405353E7,4.0022662E6,-3.3796092E6,3.0829015E6,1.8111428E6,6.046242E5,4.700679E6,9.6698975E5],"categories":[],"categories_nodes":[],"categories_segments":[],"categories_sizes":[],"default_left":[true,true,true,true,true,true,true,true,true,true,true,true,true,true,true,true,true,true,true,true,true,true,true,true,true,true,true,true,true,true,true,true,true,true,true,true,true,true,true,true,true,true,true,true,true,true,true,true,true,true,true,true,true,true,true,true,true,false,false,true,true,true,true,false,false,false,false,false,false,false,false,false,false,false,false,false,false,false,false,false,false,false,false,false,false,false,false,false,false,false,false,false,false,false,false,false,false,false,false,false,false,false,false,false,false,false,false,false,false,false,false,false,false,false,false,false,false,false,false,false,false,false,false],"id":9,"left_children":[1,3,5,7,9,11,13,15,17,19,21,23,25,27,29,31,33,35,37,39,41,43,45,47,49,51,53,55,57,59,61,63,65,67,69,71,73,75,77,79,81,83,85,87,89,91,93,95,97,99,101,103,105,107,109,111,113,-1,-1,115,117,119,121,-1,-1,-1,-1,-1,-1,-1,-1,-1,-1,-1,-1,-1,-1,-1,-1,-1,-1,-1,-1,-1,-1,-1,-1,-1,-1,-1,-1,-1,-1,-1,-1,-1,-1,-1,-1,-1,-1,-1,-1,-1,-1,-1,-1,-1,-1,-1,-1,-1,-1,-1,-1,-1,-1,-1,-1,-1,-1,-1,-1],"loss_changes":[7.0610685E14,2.3819177E14,1.5467345E14,2.2027373E13,2.1766787E14,2.8966467E13,3.967147E13,2.4860552E12,2.1610076E13,4.783327E13,6.489701E14,2.9098437E13,9.34297E13,7.113041E13,1.2331999E14,1.7336E12,6.5767316E11,1.0870057E13,3.693562E13,2.7649062E13,1.8928961E13,3.327526E14,3.6012885E14,7.186299E13,6.6369895E13,5.4934737E13,6.058729E13,3.7132626E13,8.210958E12,1.5563992E14,8.483027E13,1.6578031E12,2.365571E11,4.987599E11,1.114112E10,1.0700315E13,7.8983064E13,5.4896968E13,4.0181642E12,3.6274855E12,7.37409E12,2.0350058E13,1.3103052E13,1.1651441E14,4.376788E13,5.3381926E13,1.7618452E14,1.3865899E13,1.8019121E14,7.7385706E13,1.5200138E14,4.1719014E13,8.839739E12,1.0292191E14,1.7192284E14,4.8372673E13,1.0396351E14,0E0,0E0,5.310294E13,2.6072619E14,1.1750108E14,1.3222845E14,0E0,0E0,0E0,0E0,0E0,0E0,0E0,0E0,0E0,0E0,0E0,0E0,0E0,0E0,0E0,0E0,0E0,0E0,0E0,0E0,0E0,0E0,0E0,0E0,0E0,0E0,0E0,0E0,0E0,0E0,0E0,0E0,0E0,0E0,0E0,0E0,0E0,0E0,0E0,0E0,0E0,0E0,0E0,0E0,0E0,0E0,0E0,0E0,0E0,0E0,0E0,0E0,0E0,0E0,0E0,0E0,0E0,0E0,0E0,0E0],"parents":[2147483647,0,0,1,1,2,2,3,3,4,4,5,5,6,6,7,7,8,8,9,9,10,10,11,11,12,12,13,13,14,14,15,15,16,16,17,17,18,18,19,19,20,20,21,21,22,22,23,23,24,24,25,25,26,26,27,27,28,28,29,29,30,30,31,31,32,32,33,33,34,34,35,35,36,36,37,37,38,38,39,39,40,40,41,41,42,42,43,43,44,44,45,45,46,46,47,47,48,48,49,49,50,50,51,51,52,52,53,53,54,54,55,55,56,56,59,59,60,60,61,61,62,62],"right_children":[2,4,6,8,10,12,14,16,18,20,22,24,26,28,30,32,34,36,38,40,42,44,46,48,50,52,54,56,58,60,62,64,66,68,70,72,74,76,78,80,82,84,86,88,90,92,94,96,98,100,102,104,106,108,110,112,114,-1,-1,116,118,120,122,-1,-1,-1,-1,-1,-1,-1,-1,-1,-1,-1,-1,-1,-1,-1,-1,-1,-1,-1,-1,-1,-1,-1,-1,-1,-1,-1,-1,-1,-1,-1,-1,-1,-1,-1,-1,-1,-1,-1,-1,-1,-1,-1,-1,-1,-1,-1,-1,-1,-1,-1,-1,-1,-1,-1,-1,-1,-1,-1,-1],"split_conditions":[7.45E1,1.5E0,1.265E2,3.15E1,3.65E1,9.65E1,7.5E0,2.3577215E1,2.75E1,1.75E1,1.5E0,5.5E0,1.5E0,1.845E2,1.25E1,2.1077215E1,2.6491854E-1,1.5E0,7.25E1,3.25E1,3.15E1,1.15E1,4.55E1,9.55E1,7.5E0,1.24E2,1.05E1,9.5E0,7.6491857E-1,7.6491857E-1,1.835E2,7.5E0,3.05E1,2.95E1,3.05E1,4.75E1,6.65E1,7.15E1,7.6491857E-1,1.15E1,3.5E0,6.5E0,5E-1,3.75E1,4.8E1,4.35E1,1.25E1,2.3577215E1,3.5E0,1.5E0,9.55E1,1.25E1,7.6491857E-1,1.095E2,9.85E1,1.58E2,7.6491857E-1,-1.8411361E5,-1.4053912E6,4.5E0,1.585E2,1.59E2,2.75E1,2.9617002E4,-7.076025E4,-3.5034188E4,9.236085E4,-1.86687E5,-8.142007E4,-1.8459925E5,-1.2468681E5,4.690728E3,3.2743967E4,3.279565E5,-7.6651825E5,-7.3284253E3,9.875481E5,-3.3799738E5,-8.718366E5,6.582799E3,-2.1048355E5,4.878417E4,8.1498164E4,-3.7162418E4,2.4368117E5,1.440903E4,4.058021E4,1.04938984E5,3.107932E5,4.2987273E4,4.2452506E5,-8.550191E3,-9.48515E4,1.2288607E5,6.3299113E4,2.640417E5,1.7334384E5,5.3793444E5,-1.5596092E6,5.6989098E4,-4.0212972E5,1.4466889E5,1.3838642E6,4.954959E5,-4.413727E5,7.305039E4,5.0320072E5,3.835215E5,1.137739E5,1.5163185E6,3.2182097E5,-6.5186206E5,4.8076228E5,-1.8092449E6,2.7222203E5,3.121606E6,1.2006799E6,-1.0138828E6,9.248705E5,5.433429E5,1.8138727E5,1.4102038E6,2.9009694E5],"split_indices":[2,1,2,2,2,2,5,5,5,5,3,1,1,2,5,5,0,4,2,2,2,1,2,2,1,2,1,1,0,0,2,5,2,2,2,2,2,2,0,1,1,1,4,2,2,2,5,5,1,0,2,5,0,2,2,2,0,0,0,1,2,2,5,0,0,0,0,0,0,0,0,0,0,0,0,0,0,0,0,0,0,0,0,0,0,0,0,0,0,0,0,0,0,0,0,0,0,0,0,0,0,0,0,0,0,0,0,0,0,0,0,0,0,0,0,0,0,0,0,0,0,0,0],"split_type":[0,0,0,0,0,0,0,0,0,0,0,0,0,0,0,0,0,0,0,0,0,0,0,0,0,0,0,0,0,0,0,0,0,0,0,0,0,0,0,0,0,0,0,0,0,0,0,0,0,0,0,0,0,0,0,0,0,0,0,0,0,0,0,0,0,0,0,0,0,0,0,0,0,0,0,0,0,0,0,0,0,0,0,0,0,0,0,0,0,0,0,0,0,0,0,0,0,0,0,0,0,0,0,0,0,0,0,0,0,0,0,0,0,0,0,0,0,0,0,0,0,0,0],"sum_hessian":[6.7E4,6.3758E4,3.242E3,8.544E3,5.5214E4,2.703E3,5.39E2,2.59E2,8.285E3,1.3019E4,4.2195E4,1.938E3,7.65E2,4.1E1,4.98E2,1.19E2,1.4E2,5.226E3,3.059E3,3.582E3,9.437E3,2.814E3,3.9381E4,6.42E2,1.296E3,5.7E1,7.08E2,3.8E1,3E0,4.5E1,4.53E2,1.1E2,9E0,9.4E1,4.6E1,5.181E3,4.5E1,3.039E3,2E1,6.91E2,2.891E3,7.47E2,8.69E3,1.963E3,8.51E2,3.316E3,3.6065E4,6.29E2,1.3E1,2.28E2,1.068E3,4E1,1.7E1,5.7E2,1.38E2,2.9E1,9E0,1E0,2E0,9E0,3.6E1,4.13E2,4E1,1.7E1,9.3E1,1E0,8E0,4E0,9E1,5E0,4.1E1,1.982E3,3.199E3,3.9E1,6E0,3.035E3,4E0,1.9E1,1E0,6.85E2,6E0,9.12E2,1.979E3,7.24E2,2.3E1,6.324E3,2.366E3,2.92E2,1.671E3,8.24E2,2.7E1,2.44E3,8.76E2,5.223E3,3.0842E4,3E2,3.29E2,7E0,6E0,1.89E2,3.9E1,1.06E3,8E0,4E0,3.6E1,9E0,8E0,1.92E2,3.78E2,1.1E1,1.27E2,3E0,2.6E1,2E0,7E0,2E0,7E0,7E0,2.9E1,1.1E2,3.03E2,1.5E1,2.5E1],"tree_param":{"num_deleted":"0","num_feature":"6","num_nodes":"123","size_leaf_vector":"0"}},{"base_weights":[1.4582589E5,1.24732625E5,4.1919916E5,1.6067017E5,6.474706E4,3.3879228E5,7.0045625E5,1.243456E5,2.295529E5,6.0958267E3,9.866165E4,1.1616229E6,3.259483E5,1.839012E5,7.955276E5,1.4106022E5,-2.0915545E5,5.448033E5,1.8145975E5,3.2147113E4,-5.2232914E4,8.303274E4,3.603272E5,2.1707112E6,-1.2500984E5,4.007685E5,2.0461944E5,1.8200282E6,-2.3260789E5,6.132317E5,1.01882256E6,1.0389113E5,2.0184097E5,2.3543918E4,-7.538901E5,8.6102406E5,3.808318E5,1.0896908E5,2.8197703E5,1.3884074E4,3.4870116E5,-1.2476573E5,1.2640723E5,7.774862E4,4.4191606E5,3.3819516E5,3.9533265E6,1.3712035E6,4.83021E6,1.4733092E6,-6.7817106E5,4.234317E5,-1.104791E6,-1.3086698E6,2.3634114E5,3.3389648E6,-1.2429359E6,-4.3575562E5,3.5153232E6,4.5071975E5,1.1692931E6,2.334105E6,8.1731606E5,1.4526731E5,-2.1082738E4,1.4719639E6,1.7662723E5,3.7837822E5,-2.0899826E4,-1.7661012E5,-8.327142E5,1.715746E6,7.6220975E5,3.5467662E5,2.136984E6,6.151376E4,3.4686534E5,2.2003033E5,4.3604444E5,2.7303064E4,-1.9843647E5,4.5198378E5,-1.0136242E6,-3.966905E4,-1.721186E5,2.7817522E5,-1.5306781E4,5.115328E4,1.2864868E5,1.5472629E6,2.401273E5,4.1104247E5,-7.797149E5,5.602122E6,-1.320928E6,2.5563315E6,1.7278433E5,-3.8039285E6,2.986837E6,2.7322105E6,-1.0014654E6,4.0704078E5,1.7043609E6,9.329288E5,-4.082457E6,2.4102961E5,-2.4167532E6,1.6305334E5,5.4614925E5,6.4420885E6,1.5787175E6,8.533011E4,-3.9208005E6,2.0245656E5,-2.6214612E6,8.642228E5,6.7620495E6,6.3540406E5,-8.067607E5,1.6210098E6,-2.10851E6,4.7638265E6,-8.0030144E5,2.4512322E5,1.3353111E6],"categories":[],"categories_nodes":[],"categories_segments":[],"categories_sizes":[],"default_left":[true,true,true,true,true,true,true,true,true,true,true,true,true,true,true,true,true,true,true,true,true,true,true,true,true,true,true,true,true,true,true,true,true,true,true,true,true,true,true,true,true,true,true,true,true,true,true,true,false,true,true,true,true,true,true,true,true,true,true,true,true,true,true,false,false,false,false,false,false,false,false,false,false,false,false,false,false,false,false,false,false,false,false,false,false,false,false,false,false,false,false,false,false,false,false,false,false,false,false,false,false,false,false,false,false,false,false,false,false,false,false,false,false,false,false,false,false,false,false,false,false,false,false,false,false],"id":10,"left_children":[1,3,5,7,9,11,13,15,17,19,21,23,25,27,29,31,33,35,37,39,41,43,45,47,49,51,53,55,57,59,61,63,65,67,69,71,73,75,77,79,81,83,85,87,89,91,93,95,-1,97,99,101,103,105,107,109,111,113,115,117,119,121,123,-1,-1,-1,-1,-1,-1,-1,-1,-1,-1,-1,-1,-1,-1,-1,-1,-1,-1,-1,-1,-1,-1,-1,-1,-1,-1,-1,-1,-1,-1,-1,-1,-1,-1,-1,-1,-1,-1,-1,-1,-1,-1,-1,-1,-1,-1,-1,-1,-1,-1,-1,-1,-1,-1,-1,-1,-1,-1,-1,-1,-1,-1],"loss_changes":[3.862978E14,1.3408277E14,1.082921E14,9.729953E13,4.6358124E13,3.9083867E13,5.2204556E13,1.42008E14,2.0350334E14,1.297854E13,6.0360397E13,7.427594E13,3.3306297E13,1.1422747E14,3.6010415E13,5.4775027E13,1.5415718E14,9.181164E13,8.487963E13,3.4127592E13,3.4184093E13,2.6393665E13,6.4823967E13,6.1418066E13,2.3986486E13,7.805855E13,6.775504E13,1.6233336E14,1.0355723E14,4.447556E13,1.049026E14,7.784125E13,2.944617E14,1.3459859E13,1.6416237E13,4.9874234E13,5.307499E13,7.643077E13,4.6497685E13,1.5912096E13,4.5764995E13,7.5526455E12,1.6393088E13,1.8586546E13,4.4683862E13,6.7750114E13,5.088084E13,3.648559E13,0E0,6.727243E13,2.4787355E13,4.6357327E13,2.1010871E14,5.03812E13,3.1175943E13,1.15461874E14,4.301756E13,1.7908356E14,5.4407866E13,9.038831E13,1.6924941E14,4.0744643E14,1.0370665E14,0E0,0E0,0E0,0E0,0E0,0E0,0E0,0E0,0E0,0E0,0E0,0E0,0E0,0E0,0E0,0E0,0E0,0E0,0E0,0E0,0E0,0E0,0E0,0E0,0E0,0E0,0E0,0E0,0E0,0E0,0E0,0E0,0E0,0E0,0E0,0E0,0E0,0E0,0E0,0E0,0E0,0E0,0E0,0E0,0E0,0E0,0E0,0E0,0E0,0E0,0E0,0E0,0E0,0E0,0E0,0E0,0E0,0E0,0E0,0E0,0E0,0E0],"parents":[2147483647,0,0,1,1,2,2,3,3,4,4,5,5,6,6,7,7,8,8,9,9,10,10,11,11,12,12,13,13,14,14,15,15,16,16,17,17,18,18,19,19,20,20,21,21,22,22,23,23,24,24,25,25,26,26,27,27,28,28,29,29,30,30,31,31,32,32,33,33,34,34,35,35,36,36,37,37,38,38,39,39,40,40,41,41,42,42,43,43,44,44,45,45,46,46,47,47,49,49,50,50,51,51,52,52,53,53,54,54,55,55,56,56,57,57,58,58,59,59,60,60,61,61,62,62],"right_children":[2,4,6,8,10,12,14,16,18,20,22,24,26,28,30,32,34,36,38,40,42,44,46,48,50,52,54,56,58,60,62,64,66,68,70,72,74,76,78,80,82,84,86,88,90,92,94,96,-1,98,100,102,104,106,108,110,112,114,116,118,120,122,124,-1,-1,-1,-1,-1,-1,-1,-1,-1,-1,-1,-1,-1,-1,-1,-1,-1,-1,-1,-1,-1,-1,-1,-1,-1,-1,-1,-1,-1,-1,-1,-1,-1,-1,-1,-1,-1,-1,-1,-1,-1,-1,-1,-1,-1,-1,-1,-1,-1,-1,-1,-1,-1,-1,-1,-1,-1,-1,-1,-1,-1,-1],"split_conditions":[6.75E1,2.75E1,1.085E2,5.45E1,2.6491854E-1,6.85E1,2.5E0,2.5E0,2.5E0,2.5E0,6.15E1,7.5E0,2.75E1,5E-1,1.435E2,4.75E1,2.6491854E-1,5.85E1,5E-1,5.4E1,5.5E0,1.75E1,2.3E1,6.5E0,5E-1,1.035E2,6.95E1,2.75E1,1.845E2,1.05E1,1.59E2,1.5E0,1.5E0,7.5E0,7.5E0,5.65E1,2.45E1,7.6491857E-1,5.5E0,5.05E1,5.95E1,5.75E1,6.05E1,5.75E1,1.85E1,1.5E0,2.45E1,2.1077215E1,1.449063E6,8.5E0,1.25E1,1.005E2,8.5E0,5E-1,1.5E0,1.5E0,1.5E0,1.815E2,7.6491857E-1,9.5E0,1.265E2,7.5E0,7.5E0,4.3580195E4,-6.324822E3,4.415892E5,5.298817E4,1.1351347E5,-6.269948E3,-5.298304E4,-2.4981427E5,5.147238E5,2.2866294E5,1.0640299E5,6.4109525E5,1.8454129E4,1.0405961E5,6.60091E4,1.30813336E5,8.1909194E3,-5.953094E4,1.3559514E5,-3.0408728E5,-1.1900716E4,-5.1635582E4,8.345257E4,-4.5920347E3,1.5345985E4,3.8594605E4,4.6417888E5,7.2038195E4,1.2331274E5,-2.3391447E5,1.6806366E6,-3.962784E5,7.668995E5,5.18353E4,-1.1411786E6,8.960511E5,8.196632E5,-3.0043962E5,1.2211224E5,5.1130828E5,2.7987866E5,-1.2247371E6,7.230888E4,-7.25026E5,4.8916004E4,1.6384478E5,1.9326266E6,4.7361528E5,2.5599033E4,-1.1762402E6,6.0736973E4,-7.8643844E5,2.5926686E5,2.0286149E6,1.9062122E5,-2.4202822E5,4.8630294E5,-6.32553E5,1.429148E6,-2.4009044E5,7.353697E4,4.0059334E5],"split_indices":[2,5,2,2,0,2,1,3,3,3,2,1,5,4,2,2,0,2,4,2,1,1,1,1,4,2,2,5,2,1,2,3,3,5,5,2,1,0,1,2,2,2,2,2,1,0,1,5,0,1,5,2,1,4,0,1,1,2,0,1,2,1,1,0,0,0,0,0,0,0,0,0,0,0,0,0,0,0,0,0,0,0,0,0,0,0,0,0,0,0,0,0,0,0,0,0,0,0,0,0,0,0,0,0,0,0,0,0,0,0,0,0,0,0,0,0,0,0,0,0,0,0,0,0,0],"split_type":[0,0,0,0,0,0,0,0,0,0,0,0,0,0,0,0,0,0,0,0,0,0,0,0,0,0,0,0,0,0,0,0,0,0,0,0,0,0,0,0,0,0,0,0,0,0,0,0,0,0,0,0,0,0,0,0,0,0,0,0,0,0,0,0,0,0,0,0,0,0,0,0,0,0,0,0,0,0,0,0,0,0,0,0,0,0,0,0,0,0,0,0,0,0,0,0,0,0,0,0,0,0,0,0,0,0,0,0,0,0,0,0,0,0,0,0,0,0,0,0,0,0,0,0,0],"sum_hessian":[6.7E4,6.2202E4,4.798E3,3.8897E4,2.3305E4,3.733E3,1.065E3,2.5469E4,1.3428E4,8.539E3,1.4766E4,5.6E1,3.677E3,1.66E2,8.99E2,2.4254E4,1.215E3,1.776E3,1.1652E4,5.903E3,2.636E3,1.3935E4,8.31E2,3.1E1,2.5E1,2.273E3,1.404E3,3.3E1,1.33E2,4.97E2,4.02E2,1.5052E4,9.202E3,8.52E2,3.63E2,6.05E2,1.171E3,6.771E3,4.881E3,5.582E3,3.21E2,1.875E3,7.61E2,1.3734E4,2.01E2,8.27E2,4E0,2.5E1,6E0,6E0,1.9E1,2.24E3,3.3E1,2.8E1,1.376E3,2.2E1,1.1E1,1.27E2,6E0,3.86E2,1.11E2,5.2E1,3.5E2,1.1308E4,3.744E3,1.78E2,9.024E3,9.4E1,7.58E2,4.4E1,3.19E2,6.1E1,5.44E2,1.155E3,1.6E1,5.646E3,1.125E3,3.483E3,1.398E3,5.251E3,3.31E2,2.99E2,2.2E1,6.71E2,1.204E3,3.67E2,3.94E2,9.022E3,4.712E3,3E1,1.71E2,7.77E2,5E1,3E0,1E0,1.2E1,1.3E1,1E0,5E0,1E0,1.8E1,2.213E3,2.7E1,2E1,1.3E1,1.2E1,1.6E1,1.114E3,2.62E2,7E0,1.5E1,8E0,3E0,9.9E1,2.8E1,4E0,2E0,3.37E2,4.9E1,9.8E1,1.3E1,2.9E1,2.3E1,1.67E2,1.83E2],"tree_param":{"num_deleted":"0","num_feature":"6","num_nodes":"125","size_leaf_vector":"0"}},{"base_weights":[1.0222412E5,8.737244E4,2.9470516E5,-1.018981E4,1.026381E5,2.5624686E5,6.586597E5,-2.1405712E5,-3.691196E3,1.6583106E5,7.910319E4,8.5773075E5,2.4818788E5,-3.9567222E5,7.495403E5,2.9592598E4,-2.3122436E5,6.5266375E4,-2.7560078E4,4.0909147E5,1.5122692E5,8.0940445E4,-9.791873E5,3.0730175E6,4.8613028E5,1.966942E5,3.4081522E5,-6.373834E6,-5.2561223E4,2.1239078E6,6.0404625E5,7.0466766E4,-6.3900207E4,-1.9489922E5,-3.055673E5,3.7979036E3,7.7139944E5,-1.8242281E5,-2.298972E3,4.5599462E5,-1.1119252E6,1.0987836E5,2.2206989E5,5.261933E4,1.3339789E5,1.816572E4,-1.5236109E6,2.501205E5,4.7167315E6,1.190475E6,-2.658334E5,-1.2467838E5,2.7376988E5,9.3635894E5,2.3741775E5,5.878893E5,-2.3676242E6,-2.6696605E6,2.5847282E6,2.3561522E6,3.9855703E5,2.011695E5,4.281075E4,-2.1894012E5,1.08958E4,-1.4933264E5,-2.2738231E5,-2.3283322E5,-3.4858694E5,-2.8009223E4,7.90423E4,9.842357E5,3.6151153E5,-1.239034E5,-3.8232838E5,2.8878662E5,-6.3751953E3,1.9227503E5,6.629005E5,-1.5337175E5,-2.1375772E6,1.5756888E5,2.1662547E4,2.1330866E5,2.1368388E6,6.5149617E4,-2.0867652E5,4.05614E5,9.150903E4,1.0015914E6,-4.1992156E5,-2.9249638E6,-8.415931E5,-1.3399933E5,7.0124E5,2.3315618E6,1.9824053E5,-1.4094918E6,2.5722769E5,-3.7778797E5,1.7542962E5,1.8572492E5,3.7221322E5,3.1416588E5,1.1965651E6,4.482653E5,1.14199445E5,1.7582214E5,4.1005308E6,-3.2390242E6,1.866088E6,-4.7252595E6,1.748568E6,5.371833E6,1.4970221E6,-3.0871398E6,4.799247E6,1.3825426E3,8.7161594E5],"categories":[],"categories_nodes":[],"categories_segments":[],"categories_sizes":[],"default_left":[true,true,true,true,true,true,true,true,true,true,true,true,true,true,true,true,true,true,true,true,true,true,true,true,true,true,true,false,true,true,true,true,true,true,true,true,true,true,true,true,true,true,true,true,true,true,true,true,false,true,true,true,true,true,true,true,true,true,true,true,true,false,false,false,false,false,false,false,false,false,false,false,false,false,false,false,false,false,false,false,false,false,false,false,false,false,false,false,false,false,false,false,false,false,false,false,false,false,false,false,false,false,false,false,false,false,false,false,false,false,false,false,false,false,false,false,false,false,false],"id":11,"left_children":[1,3,5,7,9,11,13,15,17,19,21,23,25,27,29,31,33,35,37,39,41,43,45,47,49,51,53,-1,55,57,59,61,63,65,67,69,71,73,75,77,79,81,83,85,87,89,91,93,-1,95,97,99,101,103,105,107,109,111,113,115,117,-1,-1,-1,-1,-1,-1,-1,-1,-1,-1,-1,-1,-1,-1,-1,-1,-1,-1,-1,-1,-1,-1,-1,-1,-1,-1,-1,-1,-1,-1,-1,-1,-1,-1,-1,-1,-1,-1,-1,-1,-1,-1,-1,-1,-1,-1,-1,-1,-1,-1,-1,-1,-1,-1,-1,-1,-1,-1],"loss_changes":[1.915077E14,9.264322E13,6.7003134E13,1.1150514E13,7.998108E13,2.0834316E13,4.4181372E13,1.0943694E12,1.3429378E13,5.1788447E13,7.628437E13,4.542861E13,2.0375996E13,7.555838E13,8.310116E13,7.328879E10,5.9667015E11,9.106059E13,2.3710235E13,5.9434278E13,4.0311422E13,5.8120655E13,3.6950484E13,3.594053E13,2.6798551E13,6.832502E13,9.3991584E13,0E0,5.4768504E13,9.525937E13,1.3695583E14,3.837911E10,7.196373E10,2.1174839E11,1.628989E11,4.6236917E12,1.4300328E13,9.896234E12,6.1860343E12,4.363378E13,2.4250715E13,3.658538E13,8.466431E13,8.320879E13,1.5637543E14,1.1191246E13,3.959126E13,7.871015E11,0E0,2.8975653E13,1.531764E13,4.0629027E13,1.9207262E13,3.6213117E13,3.3853075E13,4.125492E13,3.5558357E13,4.4590854E13,1.0412564E14,5.467551E14,6.46319E13,0E0,0E0,0E0,0E0,0E0,0E0,0E0,0E0,0E0,0E0,0E0,0E0,0E0,0E0,0E0,0E0,0E0,0E0,0E0,0E0,0E0,0E0,0E0,0E0,0E0,0E0,0E0,0E0,0E0,0E0,0E0,0E0,0E0,0E0,0E0,0E0,0E0,0E0,0E0,0E0,0E0,0E0,0E0,0E0,0E0,0E0,0E0,0E0,0E0,0E0,0E0,0E0,0E0,0E0,0E0,0E0,0E0,0E0],"parents":[2147483647,0,0,1,1,2,2,3,3,4,4,5,5,6,6,7,7,8,8,9,9,10,10,11,11,12,12,13,13,14,14,15,15,16,16,17,17,18,18,19,19,20,20,21,21,22,22,23,23,24,24,25,25,26,26,28,28,29,29,30,30,31,31,32,32,33,33,34,34,35,35,36,36,37,37,38,38,39,39,40,40,41,41,42,42,43,43,44,44,45,45,46,46,47,47,49,49,50,50,51,51,52,52,53,53,54,54,55,55,56,56,57,57,58,58,59,59,60,60],"right_children":[2,4,6,8,10,12,14,16,18,20,22,24,26,28,30,32,34,36,38,40,42,44,46,48,50,52,54,-1,56,58,60,62,64,66,68,70,72,74,76,78,80,82,84,86,88,90,92,94,-1,96,98,100,102,104,106,108,110,112,114,116,118,-1,-1,-1,-1,-1,-1,-1,-1,-1,-1,-1,-1,-1,-1,-1,-1,-1,-1,-1,-1,-1,-1,-1,-1,-1,-1,-1,-1,-1,-1,-1,-1,-1,-1,-1,-1,-1,-1,-1,-1,-1,-1,-1,-1,-1,-1,-1,-1,-1,-1,-1,-1,-1,-1,-1,-1,-1,-1],"split_conditions":[6.75E1,1.5E0,1.535E2,3.15E1,1.75E1,6.85E1,7.5E0,7.5E0,1.5E0,2.5E0,6.65E1,1.25E1,9.5E0,1.58E2,1.25E1,2.6491854E-1,2.6491854E-1,3.75E1,4.55E1,1.65E1,5.5E0,5.55E1,5.5E0,7.5E0,7.5E0,7.15E1,7.15E1,-1.9121502E6,9.5E0,1.585E2,1.59E2,3.05E1,3.05E1,2.3577215E1,2.3577215E1,3.45E1,7.6491857E-1,4.35E1,2.5E0,4.85E1,5.2E1,2.5E0,6.55E1,2.5E0,2.5E0,2.5E0,2.3577215E1,4.5E0,1.4150195E6,7.6491857E-1,2.3577215E1,7.6491857E-1,8.95E1,2.6491854E-1,1.15E1,8.5E0,1.15E1,7.5E0,4.5E0,7.6491857E-1,7.5E0,6.035085E4,1.2843226E4,-6.568204E4,3.26874E3,-4.4799793E4,-6.8214695E4,-6.984997E4,-1.04576086E5,-8.402768E3,2.371269E4,2.9527072E5,1.0845346E5,-3.717102E4,-1.14698516E5,8.663599E4,-1.9125587E3,5.768251E4,1.9887016E5,-4.6011527E4,-6.412732E5,4.7270664E4,6.498764E3,6.3992598E4,6.410516E5,1.9544887E4,-6.2602957E4,1.216842E5,2.745271E4,3.0047744E5,-1.2597648E5,-8.774892E5,-2.5247795E5,-4.01998E4,2.1037202E5,6.9946856E5,5.947216E4,-4.2284753E5,7.716831E4,-1.133364E5,5.262889E4,5.571748E4,1.1166397E5,9.4249766E4,3.5896956E5,1.344796E5,3.4259836E4,5.2746645E4,1.2301592E6,-9.717073E5,5.5982644E5,-1.4175779E6,5.2457044E5,1.61155E6,4.4910666E5,-9.2614194E5,1.4397741E6,4.147628E2,2.614848E5],"split_indices":[2,1,2,2,5,2,5,5,3,5,2,5,1,2,5,0,0,2,2,1,1,2,1,5,1,2,2,0,1,2,2,2,2,5,5,2,0,2,5,2,2,3,2,3,3,1,5,1,0,0,5,0,2,0,1,1,1,1,1,0,1,0,0,0,0,0,0,0,0,0,0,0,0,0,0,0,0,0,0,0,0,0,0,0,0,0,0,0,0,0,0,0,0,0,0,0,0,0,0,0,0,0,0,0,0,0,0,0,0,0,0,0,0,0,0,0,0,0,0],"split_type":[0,0,0,0,0,0,0,0,0,0,0,0,0,0,0,0,0,0,0,0,0,0,0,0,0,0,0,0,0,0,0,0,0,0,0,0,0,0,0,0,0,0,0,0,0,0,0,0,0,0,0,0,0,0,0,0,0,0,0,0,0,0,0,0,0,0,0,0,0,0,0,0,0,0,0,0,0,0,0,0,0,0,0,0,0,0,0,0,0,0,0,0,0,0,0,0,0,0,0,0,0,0,0,0,0,0,0,0,0,0,0,0,0,0,0,0,0,0,0],"sum_hessian":[6.7E4,6.2202E4,4.798E3,8.416E3,5.3786E4,4.341E3,4.57E2,2.59E2,8.157E3,1.4594E4,3.9192E4,5.6E1,4.285E3,3.6E1,4.21E2,1.7E1,2.42E2,2.097E3,6.06E3,8.25E2,1.3769E4,3.9125E4,6.7E1,7E0,4.9E1,2.756E3,1.529E3,1E0,3.5E1,3.9E1,3.82E2,1.2E1,5E0,1.65E2,7.7E1,1.93E3,1.67E2,8.49E2,5.211E3,8.01E2,2.4E1,8.696E3,5.073E3,2.5409E4,1.3716E4,2.4E1,4.3E1,3E0,4E0,2.5E1,2.4E1,5.33E2,2.223E3,2.25E2,1.304E3,2.8E1,7E0,3E0,3.6E1,3.9E1,3.43E2,1E0,1.1E1,1E0,4E0,7.1E1,9.4E1,3.1E1,4.6E1,1.357E3,5.73E2,1.09E2,5.8E1,6.58E2,1.91E2,7.1E1,5.14E3,3.53E2,4.48E2,1.3E1,1.1E1,5.644E3,3.052E3,5.051E3,2.2E1,2.4247E4,1.162E3,1.828E3,1.1888E4,7E0,1.7E1,1.3E1,3E1,2E0,1E0,1.1E1,1.4E1,7E0,1.7E1,2.89E2,2.44E2,1.175E3,1.048E3,6.7E1,1.58E2,4.8E2,8.24E2,2.6E1,2E0,6E0,1E0,2E0,1E0,9E0,2.7E1,1.2E1,2.7E1,1.87E2,1.56E2],"tree_param":{"num_deleted":"0","num_feature":"6","num_nodes":"119","size_leaf_vector":"0"}},{"base_weights":[7.160438E4,4.3986324E4,1.2656737E5,6.1174395E4,-9.1375516E4,1.1550555E5,3.479134E5,5.2121906E4,4.4016522E5,-1.498659E5,5.708794E5,1.4687478E5,6.5530145E4,2.3311662E6,3.2121497E5,-1.205657E4,7.7248414E4,7.1746275E5,2.4303931E5,-3.0100031E4,-3.927549E5,2.8429138E5,8.371047E5,1.4957967E5,-8.978769E5,4.242802E4,1.6859542E5,-1.1366486E6,3.831957E6,3.1000638E5,3.1831685E6,-1.2538274E5,3.5717979E3,1.9396856E5,3.5508344E4,5.0672753E5,1.1097716E6,1.1161499E6,1.3180692E5,9.2203234E4,-2.2747455E5,-4.6028038E5,4.7158116E5,7.959302E4,5.9162694E5,4.3553597E5,1.162221E6,1.3933681E5,4.296118E5,5.600313E5,-3.020605E6,7.642613E4,-1.4142884E5,1.3555581E5,2.6183115E6,2.5873185E6,-2.71447E6,-3.347915E6,5.001711E6,-5.740542E4,3.7857175E5,6.702E4,4.1995445E6,-1.4131534E5,4.3004928E5,7.635593E3,-1.5223844E5,5.1514664E4,4.4373944E5,-1.0626212E5,7.1751375E4,1.0583581E6,4.1836897E5,5.2393347E5,2.3237598E6,1.1654286E6,-9.2028825E5,-2.269094E5,2.4003508E5,3.445784E4,4.6204306E5,-2.6165723E5,3.0409206E5,-5.277007E5,3.8589412E5,7.558509E5,2.1537488E4,-2.1247738E5,4.528231E5,1.04432225E6,-1.4300844E5,5.550838E4,6.2468244E5,2.0814005E6,8.599822E5,3.590172E4,1.5295178E5,-3.4645912E5,6.915559E5,-2.663208E6,1.0394885E6,-4.546547E6,-8.4515644E5,5.4392285E4,3.3285944E5,-8.866294E4,-3.0000068E6,1.8299162E5,-1.0585429E6,6.0075395E6,7.366752E5,-3.471801E6,-2.212385E5,6.098908E6,-1.887932E6,1.1623169E6,-3.6878253E5,6.977799E5,1.956576E5],"categories":[],"categories_nodes":[],"categories_segments":[],"categories_sizes":[],"default_left":[true,true,true,true,true,true,true,true,true,true,true,true,true,true,true,true,true,true,true,true,true,true,true,true,true,true,true,true,true,true,true,true,true,true,true,true,true,true,true,true,true,true,true,true,true,true,true,true,true,true,true,true,true,true,true,false,true,false,true,true,true,false,false,false,false,false,false,false,false,false,false,false,false,false,false,false,false,false,false,false,false,false,false,false,false,false,false,false,false,false,false,false,false,false,false,false,false,false,false,false,false,false,false,false,false,false,false,false,false,false,false,false,false,false,false,false,false,false,false],"id":12,"left_children":[1,3,5,7,9,11,13,15,17,19,21,23,25,27,29,31,33,35,37,39,41,43,45,47,49,51,53,55,57,59,61,63,65,67,69,71,73,75,77,79,81,83,85,87,89,91,93,95,97,99,101,103,105,107,109,-1,111,-1,113,115,117,-1,-1,-1,-1,-1,-1,-1,-1,-1,-1,-1,-1,-1,-1,-1,-1,-1,-1,-1,-1,-1,-1,-1,-1,-1,-1,-1,-1,-1,-1,-1,-1,-1,-1,-1,-1,-1,-1,-1,-1,-1,-1,-1,-1,-1,-1,-1,-1,-1,-1,-1,-1,-1,-1,-1,-1,-1,-1],"loss_changes":[1.0169996E14,1.0376072E14,5.4823177E13,1.3573768E14,1.9473167E14,3.3447997E13,5.5695618E13,6.2325587E13,5.0279135E13,1.34324934E14,3.0891192E13,3.7185324E13,1.9593456E13,7.72181E13,3.2791857E13,1.9261194E13,1.3531033E14,3.1101536E13,5.2393828E13,7.470873E13,8.922325E13,1.2409302E13,2.7041232E13,3.745215E13,1.0691288E14,4.2053593E13,1.2161809E14,3.6401974E13,1.0073215E14,2.6473038E13,1.2387264E13,1.1724388E13,6.053105E12,2.6028651E14,1.0513503E14,1.1791271E13,9.337219E13,7.19407E12,1.872843E13,4.0796435E13,2.1593288E13,8.092846E13,1.4184371E13,1.317735E13,2.642206E13,6.865889E12,3.0436202E13,1.7764002E13,9.3954985E13,3.522188E13,4.263197E13,3.2058148E13,1.5811124E14,8.447853E13,1.2312029E14,0E0,6.784708E12,0E0,7.9547995E13,6.347438E13,5.153657E13,0E0,0E0,0E0,0E0,0E0,0E0,0E0,0E0,0E0,0E0,0E0,0E0,0E0,0E0,0E0,0E0,0E0,0E0,0E0,0E0,0E0,0E0,0E0,0E0,0E0,0E0,0E0,0E0,0E0,0E0,0E0,0E0,0E0,0E0,0E0,0E0,0E0,0E0,0E0,0E0,0E0,0E0,0E0,0E0,0E0,0E0,0E0,0E0,0E0,0E0,0E0,0E0,0E0,0E0,0E0,0E0,0E0,0E0],"parents":[2147483647,0,0,1,1,2,2,3,3,4,4,5,5,6,6,7,7,8,8,9,9,10,10,11,11,12,12,13,13,14,14,15,15,16,16,17,17,18,18,19,19,20,20,21,21,22,22,23,23,24,24,25,25,26,26,27,27,28,28,29,29,30,30,31,31,32,32,33,33,34,34,35,35,36,36,37,37,38,38,39,39,40,40,41,41,42,42,43,43,44,44,45,45,46,46,47,47,48,48,49,49,50,50,51,51,52,52,53,53,54,54,56,56,58,58,59,59,60,60],"right_children":[2,4,6,8,10,12,14,16,18,20,22,24,26,28,30,32,34,36,38,40,42,44,46,48,50,52,54,56,58,60,62,64,66,68,70,72,74,76,78,80,82,84,86,88,90,92,94,96,98,100,102,104,106,108,110,-1,112,-1,114,116,118,-1,-1,-1,-1,-1,-1,-1,-1,-1,-1,-1,-1,-1,-1,-1,-1,-1,-1,-1,-1,-1,-1,-1,-1,-1,-1,-1,-1,-1,-1,-1,-1,-1,-1,-1,-1,-1,-1,-1,-1,-1,-1,-1,-1,-1,-1,-1,-1,-1,-1,-1,-1,-1,-1,-1,-1,-1,-1],"split_conditions":[5.85E1,2.5E0,1.085E2,5.45E1,7.6491857E-1,2.75E1,1.095E2,3.45E1,6.5E0,2.6491854E-1,2.1077215E1,1.035E2,9.5E0,7.6491857E-1,2.155E2,3.15E1,1.5E0,4.5E0,5.65E1,5.75E1,5.5E0,4.5E0,3.5E0,8.95E1,8.5E0,7.5E0,9.75E1,4E0,1.75E1,2.5E0,7.5E0,5.5E0,1.15E1,3.75E1,4.55E1,1.25E1,2.6491854E-1,2.4E1,8.5E0,5.65E1,5.5E0,5E-1,9.5E0,1.75E1,1.75E1,1.5E0,4.5E0,1.5E0,1.25E1,1.045E2,1.5E0,7.35E1,9.65E1,9.05E1,1.05E1,7.7619556E5,6.5E0,-1.00437456E6,1E1,5E-1,6.5E0,2.0106E4,1.2598634E6,-4.2394605E4,1.2901479E5,2.290678E3,-4.567153E4,1.5454399E4,1.3312184E5,-3.1878637E4,2.1525414E4,3.1750744E5,1.25510695E5,1.5718005E5,6.9712794E5,3.496286E5,-2.760865E5,-6.807283E4,7.201052E4,1.0337353E4,1.3861292E5,-7.849717E4,9.1227625E4,-1.5831022E5,1.1576824E5,2.2675527E5,6.4612466E3,-6.3743215E4,1.3584694E5,3.132967E5,-4.290253E4,1.6652514E4,1.8740473E5,6.244202E5,2.5799467E5,1.0770516E4,4.5885535E4,-1.0393774E5,2.0746677E5,-7.9896244E5,3.1184656E5,-1.3639641E6,-2.5354694E5,1.6317687E4,9.9857836E4,-2.6598883E4,-9.0000206E5,5.489749E4,-3.1756288E5,1.8022619E6,2.2100256E5,-1.0415403E6,-6.6371555E4,1.8296725E6,-5.663796E5,3.4869506E5,-1.10634766E5,2.0933397E5,5.869728E4],"split_indices":[2,3,2,2,0,5,2,2,1,0,5,2,1,0,2,2,3,1,2,2,1,1,1,2,1,1,2,1,5,1,1,1,1,2,2,5,0,1,1,2,1,4,1,5,5,1,1,1,5,2,4,2,2,2,1,0,1,0,1,4,1,0,0,0,0,0,0,0,0,0,0,0,0,0,0,0,0,0,0,0,0,0,0,0,0,0,0,0,0,0,0,0,0,0,0,0,0,0,0,0,0,0,0,0,0,0,0,0,0,0,0,0,0,0,0,0,0,0,0],"split_type":[0,0,0,0,0,0,0,0,0,0,0,0,0,0,0,0,0,0,0,0,0,0,0,0,0,0,0,0,0,0,0,0,0,0,0,0,0,0,0,0,0,0,0,0,0,0,0,0,0,0,0,0,0,0,0,0,0,0,0,0,0,0,0,0,0,0,0,0,0,0,0,0,0,0,0,0,0,0,0,0,0,0,0,0,0,0,0,0,0,0,0,0,0,0,0,0,0,0,0,0,0,0,0,0,0,0,0,0,0,0,0,0,0,0,0,0,0,0,0],"sum_hessian":[6.7E4,4.4594E4,2.2406E4,3.957E4,5.024E3,2.1341E4,1.065E3,3.8648E4,9.22E2,4.617E3,4.07E2,1.311E4,8.231E3,1.3E1,1.052E3,1.0874E4,2.7774E4,3.82E2,5.4E2,3.093E3,1.524E3,1.97E2,2.1E2,1.3077E4,3.3E1,6.725E3,1.506E3,4E0,9E0,1.049E3,3E0,1.317E3,9.557E3,7.315E3,2.0459E4,2.5E2,1.32E2,6E1,4.8E2,1.91E3,1.183E3,1.414E3,1.1E2,1.19E2,7.8E1,9.5E1,1.15E2,1.2617E4,4.6E2,2E1,1.3E1,5.676E3,1.049E3,1.487E3,1.9E1,1E0,3E0,1E0,8E0,1.65E2,8.84E2,1E0,2E0,1.281E3,3.6E1,9.315E3,2.42E2,4.659E3,2.656E3,4.165E3,1.6294E4,3.3E1,2.17E2,9E1,4.2E1,5.9E1,1E0,1.11E2,3.69E2,1.653E3,2.57E2,1.112E3,7.1E1,1.31E3,1.04E2,6.7E1,4.3E1,6.7E1,5.2E1,4.8E1,3E1,3.2E1,6.3E1,2.7E1,8.8E1,1.468E3,1.1149E4,1.16E2,3.44E2,2E0,1.8E1,7E0,6E0,5.228E3,4.48E2,1.031E3,1.8E1,1.431E3,5.6E1,6E0,1.3E1,2E0,1E0,7E0,1E0,3.3E1,1.32E2,3.21E2,5.63E2],"tree_param":{"num_deleted":"0","num_feature":"6","num_nodes":"119","size_leaf_vector":"0"}},{"base_weights":[5.018358E4,3.0865225E4,8.8629234E4,3.8716477E4,-1.2154221E5,8.353054E4,4.0331462E5,5.288985E4,-6.7994914E4,-1.5924083E5,1.1957913E5,2.4777871E4,1.0175988E5,2.8147892E6,2.3654677E5,4.631974E4,3.9417294E5,-9.933368E4,4.0698772E5,-5.561957E4,-3.72943E5,-3.300544E4,9.086204E5,7.289009E5,1.4932834E4,2.0249917E5,8.662792E4,5.2800155E6,1.149975E5,-2.6600062E5,9.2145975E5,1.2535454E3,7.652706E4,2.145814E6,3.6851306E5,-1.26680766E5,3.092516E5,7.9757744E5,2.4207647E5,-2.5033206E5,2.9932096E4,-1.3136662E5,-6.0263644E5,2.9937209E4,-1.7148025E6,1.3844688E6,7.297339E5,9.4872956E5,-1.4478981E6,1.08849414E5,-3.463326E4,-6.1204375E5,2.5068533E5,8.9051555E4,-7.781209E5,6.830425E6,1.7433572E6,-1.2239115E6,3.0987935E6,2.3093364E5,-2.4534048E6,2.2628598E6,4.7438367E4,-8.8359664E4,1.0036574E4,4.38484E5,3.677862E4,3.2661195E6,1.1990946E6,2.5337245E5,6.2427425E5,-3.315927E4,-3.222263E5,-4.5411275E5,3.5791575E5,1.1265921E6,-4.2675425E5,7.598568E4,5.848844E5,-1.8720731E5,-6.8451994E5,1.9995397E5,-2.53017E5,2.2402917E5,-4.481806E5,-8.0631144E5,-4.2070425E5,5.1578944E5,-5.5114332E4,5.1515168E4,1.645908E6,-4.0342828E5,1.0562416E6,6.418988E5,2.2759762E6,-2.8053005E6,1.2970716E6,1.5683894E5,-2.3039264E5,-1.9436502E5,7.100651E4,-2.2482595E6,-4.3127022E5,3.2820778E5,9.024989E3,8.477689E4,5.1145762E5,-2.4984328E6,-2.1620714E5,6.713773E5,8.771544E6,-8.598385E5,6.07807E6,-2.3854205E6,8.2432975E5,-2.190217E6,5.5918695E6,1.6614516E6,-1.00962305E5,8.0171844E5,-3.4120728E6,-3.4986605E6,2.7733355E6,2.2996108E6,-4.5370325E5],"categories":[],"categories_nodes":[],"categories_segments":[],"categories_sizes":[],"default_left":[true,true,true,true,true,true,true,true,true,true,true,true,true,true,true,true,true,true,true,true,true,true,true,true,true,true,true,true,true,true,true,true,true,true,true,true,true,true,true,true,true,true,true,true,false,true,true,true,true,true,true,true,true,true,true,true,true,true,true,true,true,true,true,false,false,false,false,false,false,false,false,false,false,false,false,false,false,false,false,false,false,false,false,false,false,false,false,false,false,false,false,false,false,false,false,false,false,false,false,false,false,false,false,false,false,false,false,false,false,false,false,false,false,false,false,false,false,false,false,false,false,false,false,false,false],"id":13,"left_children":[1,3,5,7,9,11,13,15,17,19,21,23,25,27,29,31,33,35,37,39,41,43,45,47,49,51,53,55,57,59,61,63,65,67,69,71,73,75,77,79,81,83,85,87,-1,89,91,93,95,97,99,101,103,105,107,109,111,113,115,117,119,121,123,-1,-1,-1,-1,-1,-1,-1,-1,-1,-1,-1,-1,-1,-1,-1,-1,-1,-1,-1,-1,-1,-1,-1,-1,-1,-1,-1,-1,-1,-1,-1,-1,-1,-1,-1,-1,-1,-1,-1,-1,-1,-1,-1,-1,-1,-1,-1,-1,-1,-1,-1,-1,-1,-1,-1,-1,-1,-1,-1,-1,-1,-1],"loss_changes":[4.975936E13,5.336659E13,3.5918006E13,6.414857E13,1.9880565E13,2.3614603E13,1.4290403E14,8.3930045E13,7.406537E13,4.1831585E13,3.566706E13,3.619556E13,2.563629E13,1.5247154E14,1.1555253E14,5.000561E13,3.098668E13,5.217527E13,1.9646015E13,2.1229757E13,3.4157246E13,2.6409668E13,3.0756034E12,3.582731E13,2.3986732E13,8.6385004E13,3.073763E13,5.3891337E13,5.1733028E13,2.114438E14,1.6637522E14,1.1603952E13,3.163877E14,6.689764E12,2.0396875E13,7.997976E13,1.1047038E13,3.7137685E13,1.2367874E13,1.0533567E13,4.267387E13,3.4103896E13,1.1370171E13,9.987144E12,0E0,4.0970465E12,1.4115609E13,2.5416903E13,2.9720876E13,2.9014647E13,5.6929892E13,3.541188E13,3.88703E13,2.6306398E13,3.909316E13,8.975455E13,6.1646685E13,2.337783E13,6.4991026E13,7.5658265E13,1.1507652E14,1.7440547E14,9.923653E13,0E0,0E0,0E0,0E0,0E0,0E0,0E0,0E0,0E0,0E0,0E0,0E0,0E0,0E0,0E0,0E0,0E0,0E0,0E0,0E0,0E0,0E0,0E0,0E0,0E0,0E0,0E0,0E0,0E0,0E0,0E0,0E0,0E0,0E0,0E0,0E0,0E0,0E0,0E0,0E0,0E0,0E0,0E0,0E0,0E0,0E0,0E0,0E0,0E0,0E0,0E0,0E0,0E0,0E0,0E0,0E0,0E0,0E0,0E0,0E0,0E0,0E0],"parents":[2147483647,0,0,1,1,2,2,3,3,4,4,5,5,6,6,7,7,8,8,9,9,10,10,11,11,12,12,13,13,14,14,15,15,16,16,17,17,18,18,19,19,20,20,21,21,22,22,23,23,24,24,25,25,26,26,27,27,28,28,29,29,30,30,31,31,32,32,33,33,34,34,35,35,36,36,37,37,38,38,39,39,40,40,41,41,42,42,43,43,45,45,46,46,47,47,48,48,49,49,50,50,51,51,52,52,53,53,54,54,55,55,56,56,57,57,58,58,59,59,60,60,61,61,62,62],"right_children":[2,4,6,8,10,12,14,16,18,20,22,24,26,28,30,32,34,36,38,40,42,44,46,48,50,52,54,56,58,60,62,64,66,68,70,72,74,76,78,80,82,84,86,88,-1,90,92,94,96,98,100,102,104,106,108,110,112,114,116,118,120,122,124,-1,-1,-1,-1,-1,-1,-1,-1,-1,-1,-1,-1,-1,-1,-1,-1,-1,-1,-1,-1,-1,-1,-1,-1,-1,-1,-1,-1,-1,-1,-1,-1,-1,-1,-1,-1,-1,-1,-1,-1,-1,-1,-1,-1,-1,-1,-1,-1,-1,-1,-1,-1,-1,-1,-1,-1,-1,-1,-1,-1,-1,-1],"split_conditions":[5.85E1,1.15E1,1.665E2,2.5E0,5.35E1,2.6491854E-1,1.725E2,5.45E1,5.5E0,1.5E0,7.6491857E-1,2.5E0,2.5E0,2.3577215E1,7.5E0,3.65E1,2.5E0,7.6491857E-1,1.75E1,2.6491854E-1,5E-1,5E-1,1.75E1,7.35E1,5.95E1,7.5E0,2.45E1,1.685E2,1.7E2,6.5E0,9.5E0,3.15E1,1.5E0,5.75E1,2.6491854E-1,2.6491854E-1,7.5E0,9.5E0,5E-1,2.15E1,1.5E0,2.3577215E1,2.3577215E1,1.25E1,-5.1444078E5,5E-1,2.1077215E1,7.05E1,1.75E1,9.5E0,6.15E1,1.5E0,1.15E1,2.05E1,1.25E1,1.2649186E0,2.1077215E1,1.1E1,2.75E1,1.25E1,7.6491857E-1,1.815E2,1.815E2,-2.65079E4,3.0109724E3,1.315452E5,1.1033587E4,9.798359E5,3.597284E5,7.601174E4,1.8728228E5,-9.947781E3,-9.66679E4,-1.3623383E5,1.0737473E5,3.3797766E5,-1.2802628E5,2.2795705E4,1.7546531E5,-5.6162195E4,-2.0535598E5,5.998619E4,-7.59051E4,6.720876E4,-1.3445419E5,-2.4189344E5,-1.2621128E5,1.5473684E5,-1.65343E4,1.5454551E4,4.937724E5,-1.2102849E5,3.168725E5,1.9256966E5,6.827929E5,-8.415902E5,3.891215E5,4.7051684E4,-6.91178E4,-5.8309508E4,2.1301953E4,-6.744779E5,-1.2938107E5,9.8462336E4,2.7074968E3,2.5433068E4,1.534373E5,-7.495299E5,-6.4862145E4,2.014132E5,2.6314632E6,-2.5795156E5,1.8234211E6,-7.156262E5,2.4729894E5,-6.570651E5,1.6775609E6,4.984355E5,-3.0288693E4,2.4051555E5,-1.0236219E6,-1.0495982E6,8.320007E5,6.8988325E5,-1.3611098E5],"split_indices":[2,1,2,3,2,0,2,2,1,3,0,5,3,5,1,2,5,0,5,0,4,4,5,2,2,5,1,2,2,1,1,2,3,2,0,0,5,1,4,1,0,5,5,5,0,4,5,2,1,1,2,1,1,1,5,0,5,1,5,5,0,2,2,0,0,0,0,0,0,0,0,0,0,0,0,0,0,0,0,0,0,0,0,0,0,0,0,0,0,0,0,0,0,0,0,0,0,0,0,0,0,0,0,0,0,0,0,0,0,0,0,0,0,0,0,0,0,0,0,0,0,0,0,0,0],"split_type":[0,0,0,0,0,0,0,0,0,0,0,0,0,0,0,0,0,0,0,0,0,0,0,0,0,0,0,0,0,0,0,0,0,0,0,0,0,0,0,0,0,0,0,0,0,0,0,0,0,0,0,0,0,0,0,0,0,0,0,0,0,0,0,0,0,0,0,0,0,0,0,0,0,0,0,0,0,0,0,0,0,0,0,0,0,0,0,0,0,0,0,0,0,0,0,0,0,0,0,0,0,0,0,0,0,0,0,0,0,0,0,0,0,0,0,0,0,0,0,0,0,0,0,0,0],"sum_hessian":[6.7E4,4.4594E4,2.2406E4,4.241E4,2.184E3,2.205E4,3.56E2,3.7438E4,4.972E3,1.889E3,2.95E2,5.222E3,1.6828E4,2.2E1,3.34E2,3.6732E4,7.06E2,4.665E3,3.07E2,1.273E3,6.16E2,2.48E2,4.7E1,7.1E1,5.151E3,2.196E3,1.4632E4,1.1E1,1.1E1,1.93E2,1.41E2,1.4741E4,2.1991E4,9E0,6.97E2,4.373E3,2.92E2,9E1,2.17E2,3.88E2,8.85E2,3.01E2,3.15E2,2.4E2,8E0,1.1E1,3.6E1,6.5E1,6E0,1.779E3,3.372E3,1.22E2,2.074E3,1.4592E4,4E1,7E0,4E0,8E0,3E0,1.58E2,3.5E1,5.5E1,8.6E1,1.315E3,1.3426E4,2.175E3,1.9816E4,3E0,6E0,4.82E2,2.15E2,2.959E3,1.414E3,1.7E1,2.75E2,7.1E1,1.9E1,1.47E2,7E1,3.4E2,4.8E1,5.53E2,3.32E2,1.42E2,1.59E2,1.47E2,1.68E2,3.5E1,2.05E2,2E0,9E0,8E0,2.8E1,5.4E1,1.1E1,4E0,2E0,1.559E3,2.2E2,1.342E3,2.03E3,1.1E1,1.11E2,1.57E3,5.04E2,1.4447E4,1.45E2,9E0,3.1E1,2E0,5E0,3E0,1E0,5E0,3E0,1E0,2E0,2.9E1,1.29E2,8E0,2.7E1,4E0,5.1E1,1.5E1,7.1E1],"tree_param":{"num_deleted":"0","num_feature":"6","num_nodes":"125","size_leaf_vector":"0"}},{"base_weights":[3.521225E4,5.622827E4,2.8712085E2,5.554934E4,2.889956E6,